svm_type c_svc
kernel_type rbf
gamma 2.0
nr_class 2
total_sv 24
rho -0.15603323669954136
label 1 -1
nr_sv 11 13
SV
2.0 0:0.089 1:0.101 2:0.116 3:0.124 4:0.14 5:0.142 6:0.158 7:0.17 8:0.176 9:0.3 10:0.324 11:0.354 12:0.365 13:0.391 14:0.409 15:0.428 16:0.451 17:0.456 18:0.557 19:0.578 20:0.609 21:0.634 22:0.675 23:0.693 24:0.716 25:0.729 26:0.733 27:0.836 28:0.851 29:0.864 30:0.875 31:0.906 32:0.927 33:0.953 34:0.981 35:1.0 36:1.0 37:0.001 38:0.001 39:0.001 40:0.001 41:0.001 42:0.001 43:0.001 44:0.001 45:0.001 46:0.001 47:0.001 48:0.001 49:0.001 50:0.001 51:0.001 52:0.001 53:0.001 54:0.001 55:0.001 56:0.001 57:0.001 58:0.001 59:0.001 60:0.002 61:0.003 62:0.003 63:0.003 64:0.012 65:0.021 66:0.032 67:0.109 68:0.12 69:0.203 70:0.28 71:0.429 72:0.609 73:1.0 74:0.417 75:0.458 76:0.503 77:0.543 78:0.581 79:0.621 80:0.673 81:0.699 82:0.723 83:0.749 84:0.766 85:0.782 86:0.795 87:0.807 88:0.812 89:0.853 90:0.88 91:0.884 92:0.886 93:0.89 94:0.932 95:0.934 96:0.936 97:0.971 98:0.972 99:0.974 100:0.976 101:0.981 102:0.981 103:0.984 104:0.99 105:0.991 106:0.991 107:0.996 108:0.998 109:1.0 110:1.0 
2.0 0:0.054 1:0.083 2:0.095 3:0.112 4:0.132 5:0.155 6:0.173 7:0.184 8:0.185 9:0.249 10:0.275 11:0.302 12:0.325 13:0.374 14:0.397 15:0.427 16:0.45 17:0.463 18:0.551 19:0.571 20:0.605 21:0.622 22:0.643 23:0.652 24:0.686 25:0.702 26:0.709 27:0.826 28:0.84 29:0.863 30:0.885 31:0.911 32:0.938 33:0.964 34:0.99 35:1.0 36:1.0 37:0.001 38:0.001 39:0.001 40:0.001 41:0.001 42:0.001 43:0.001 44:0.001 45:0.001 46:0.001 47:0.001 48:0.001 49:0.001 50:0.001 51:0.001 52:0.001 53:0.001 54:0.001 55:0.002 56:0.002 57:0.002 58:0.002 59:0.002 60:0.003 61:0.004 62:0.004 63:0.004 64:0.013 65:0.022 66:0.031 67:0.088 68:0.104 69:0.193 70:0.288 71:0.455 72:0.697 73:1.0 74:0.332 75:0.39 76:0.452 77:0.508 78:0.555 79:0.602 80:0.651 81:0.684 82:0.715 83:0.747 84:0.772 85:0.787 86:0.807 87:0.82 88:0.827 89:0.868 90:0.896 91:0.902 92:0.904 93:0.909 94:0.942 95:0.944 96:0.948 97:0.973 98:0.974 99:0.975 100:0.977 101:0.98 102:0.98 103:0.98 104:0.987 105:0.988 106:0.989 107:0.996 108:0.997 109:1.0 110:1.0 
0.9449172852535691 0:0.087 1:0.096 2:0.106 3:0.114 4:0.122 5:0.128 6:0.135 7:0.158 8:0.166 9:0.325 10:0.367 11:0.399 12:0.417 13:0.453 14:0.46 15:0.479 16:0.5 17:0.518 18:0.583 19:0.594 20:0.604 21:0.608 22:0.619 23:0.626 24:0.646 25:0.658 26:0.66 27:0.843 28:0.874 29:0.91 30:0.919 31:0.941 32:0.952 33:0.971 34:0.991 35:1.0 36:1.0 37:0.001 38:0.001 39:0.001 40:0.001 41:0.001 42:0.001 43:0.001 44:0.001 45:0.001 46:0.001 47:0.002 48:0.002 49:0.002 50:0.002 51:0.002 52:0.002 53:0.002 54:0.002 55:0.002 56:0.002 57:0.003 58:0.003 59:0.003 60:0.003 61:0.003 62:0.003 63:0.003 64:0.014 65:0.022 66:0.031 67:0.129 68:0.135 69:0.231 70:0.31 71:0.435 72:0.573 73:1.0 74:0.441 75:0.464 76:0.504 77:0.544 78:0.574 79:0.61 80:0.657 81:0.672 82:0.691 83:0.717 84:0.736 85:0.751 86:0.77 87:0.78 88:0.788 89:0.832 90:0.866 91:0.87 92:0.871 93:0.871 94:0.918 95:0.921 96:0.923 97:0.968 98:0.969 99:0.972 100:0.973 101:0.977 102:0.978 103:0.98 104:0.988 105:0.988 106:0.988 107:0.994 108:0.995 109:1.0 110:1.0 
2.0 0:0.087 1:0.111 2:0.133 3:0.148 4:0.159 5:0.17 6:0.185 7:0.2 8:0.205 9:0.26 10:0.274 11:0.294 12:0.312 13:0.346 14:0.373 15:0.409 16:0.449 17:0.472 18:0.62 19:0.642 20:0.658 21:0.676 22:0.699 23:0.713 24:0.734 25:0.751 26:0.766 27:0.882 28:0.891 29:0.903 30:0.909 31:0.926 32:0.942 33:0.965 34:0.985 35:1.0 36:1.0 37:0.002 38:0.002 39:0.002 40:0.002 41:0.002 42:0.002 43:0.002 44:0.002 45:0.002 46:0.002 47:0.002 48:0.002 49:0.002 50:0.002 51:0.002 52:0.002 53:0.002 54:0.002 55:0.002 56:0.002 57:0.002 58:0.002 59:0.002 60:0.002 61:0.003 62:0.003 63:0.004 64:0.012 65:0.016 66:0.025 67:0.079 68:0.089 69:0.16 70:0.237 71:0.419 72:0.657 73:1.0 74:0.369 75:0.425 76:0.481 77:0.544 78:0.594 79:0.65 80:0.705 81:0.737 82:0.768 83:0.798 84:0.812 85:0.826 86:0.84 87:0.853 88:0.861 89:0.89 90:0.914 91:0.918 92:0.921 93:0.923 94:0.953 95:0.954 96:0.956 97:0.977 98:0.978 99:0.982 100:0.982 101:0.985 102:0.986 103:0.986 104:0.993 105:0.994 106:0.994 107:0.997 108:0.998 109:1.0 110:1.0 
2.0 0:0.074 1:0.094 2:0.114 3:0.127 4:0.137 5:0.145 6:0.153 7:0.16 8:0.168 9:0.265 10:0.293 11:0.328 12:0.344 13:0.371 14:0.388 15:0.427 16:0.452 17:0.466 18:0.559 19:0.592 20:0.603 21:0.612 22:0.628 23:0.647 24:0.672 25:0.69 26:0.693 27:0.802 28:0.834 29:0.861 30:0.878 31:0.905 32:0.927 33:0.961 34:0.986 35:1.0 36:1.0 37:0.0 38:0.0 39:0.0 40:0.0 41:0.0 42:0.0 43:0.0 44:0.0 45:0.0 46:0.0 47:0.0 48:0.0 49:0.0 50:0.0 51:0.001 52:0.001 53:0.001 54:0.001 55:0.001 56:0.001 57:0.002 58:0.002 59:0.003 60:0.003 61:0.005 62:0.005 63:0.005 64:0.008 65:0.013 66:0.024 67:0.092 68:0.11 69:0.188 70:0.277 71:0.449 72:0.666 73:1.0 74:0.355 75:0.402 76:0.462 77:0.516 78:0.559 79:0.614 80:0.671 81:0.698 82:0.723 83:0.748 84:0.766 85:0.791 86:0.808 87:0.827 88:0.834 89:0.863 90:0.892 91:0.899 92:0.902 93:0.905 94:0.939 95:0.941 96:0.945 97:0.975 98:0.976 99:0.978 100:0.982 101:0.986 102:0.987 103:0.988 104:0.991 105:0.992 106:0.993 107:0.998 108:0.998 109:1.0 110:1.0 
1.4246958627150614 0:0.096 1:0.113 2:0.131 3:0.143 4:0.171 5:0.206 6:0.237 7:0.262 8:0.267 9:0.323 10:0.344 11:0.384 12:0.421 13:0.466 14:0.484 15:0.505 16:0.525 17:0.54 18:0.626 19:0.659 20:0.68 21:0.692 22:0.717 23:0.733 24:0.756 25:0.772 26:0.773 27:0.837 28:0.849 29:0.867 30:0.893 31:0.929 32:0.95 33:0.978 34:0.989 35:1.0 36:1.0 37:0.001 38:0.001 39:0.001 40:0.001 41:0.001 42:0.001 43:0.001 44:0.001 45:0.001 46:0.002 47:0.002 48:0.002 49:0.002 50:0.002 51:0.002 52:0.002 53:0.002 54:0.002 55:0.002 56:0.002 57:0.003 58:0.003 59:0.003 60:0.003 61:0.004 62:0.004 63:0.004 64:0.012 65:0.02 66:0.029 67:0.083 68:0.097 69:0.175 70:0.271 71:0.445 72:0.708 73:1.0 74:0.321 75:0.385 76:0.45 77:0.517 78:0.566 79:0.617 80:0.667 81:0.7 82:0.732 83:0.76 84:0.786 85:0.8 86:0.823 87:0.835 88:0.844 89:0.877 90:0.908 91:0.909 92:0.91 93:0.914 94:0.946 95:0.947 96:0.948 97:0.97 98:0.972 99:0.974 100:0.976 101:0.978 102:0.979 103:0.981 104:0.988 105:0.989 106:0.989 107:0.996 108:0.997 109:0.999 110:1.0 
0.9359284874304946 0:0.078 1:0.082 2:0.09 3:0.096 4:0.099 5:0.101 6:0.11 7:0.111 8:0.115 9:0.172 10:0.174 11:0.175 12:0.175 13:0.18 14:0.18 15:0.184 16:0.188 17:0.195 18:0.341 19:0.38 20:0.423 21:0.482 22:0.561 23:0.615 24:0.661 25:0.686 26:0.693 27:0.888 28:0.9 29:0.918 30:0.929 31:0.954 32:0.972 33:0.988 34:0.997 35:1.0 36:1.0 37:0.007 38:0.008 39:0.008 40:0.008 41:0.008 42:0.008 43:0.008 44:0.008 45:0.008 46:0.008 47:0.008 48:0.008 49:0.008 50:0.008 51:0.008 52:0.008 53:0.008 54:0.008 55:0.009 56:0.009 57:0.01 58:0.01 59:0.011 60:0.011 61:0.016 62:0.018 63:0.018 64:0.041 65:0.052 66:0.075 67:0.154 68:0.176 69:0.258 70:0.367 71:0.485 72:0.606 73:1.0 74:0.409 75:0.44 76:0.475 77:0.501 78:0.534 79:0.566 80:0.597 81:0.625 82:0.658 83:0.691 84:0.714 85:0.736 86:0.754 87:0.769 88:0.784 89:0.811 90:0.837 91:0.843 92:0.846 93:0.85 94:0.905 95:0.91 96:0.914 97:0.939 98:0.942 99:0.95 100:0.952 101:0.961 102:0.962 103:0.962 104:0.978 105:0.979 106:0.981 107:0.989 108:0.992 109:0.999 110:1.0 
0.04315736923801229 0:0.102 1:0.11 2:0.123 3:0.138 4:0.164 5:0.186 6:0.212 7:0.232 8:0.24 9:0.415 10:0.424 11:0.433 12:0.437 13:0.451 14:0.458 15:0.472 16:0.479 17:0.481 18:0.576 19:0.591 20:0.601 21:0.61 22:0.634 23:0.646 24:0.654 25:0.662 26:0.668 27:0.894 28:0.903 29:0.931 30:0.939 31:0.971 32:0.978 33:0.993 34:1.0 35:1.0 36:1.0 37:0.025 38:0.025 39:0.025 40:0.025 41:0.025 42:0.025 43:0.025 44:0.026 45:0.026 46:0.026 47:0.027 48:0.027 49:0.027 50:0.027 51:0.027 52:0.027 53:0.027 54:0.027 55:0.028 56:0.028 57:0.028 58:0.028 59:0.029 60:0.029 61:0.033 62:0.034 63:0.034 64:0.054 65:0.07 66:0.085 67:0.177 68:0.189 69:0.281 70:0.348 71:0.433 72:0.503 73:1.0 74:0.527 75:0.544 76:0.559 77:0.58 78:0.601 79:0.623 80:0.649 81:0.664 82:0.689 83:0.708 84:0.724 85:0.75 86:0.759 87:0.774 88:0.782 89:0.828 90:0.842 91:0.845 92:0.847 93:0.852 94:0.917 95:0.92 96:0.921 97:0.948 98:0.953 99:0.956 100:0.957 101:0.963 102:0.963 103:0.966 104:0.977 105:0.978 106:0.98 107:0.991 108:0.993 109:1.0 110:1.0 
1.6436532938604267 0:0.073 1:0.098 2:0.13 3:0.144 4:0.163 5:0.178 6:0.19 7:0.21 8:0.216 9:0.298 10:0.314 11:0.325 12:0.331 13:0.36 14:0.373 15:0.394 16:0.415 17:0.433 18:0.596 19:0.645 20:0.686 21:0.703 22:0.721 23:0.731 24:0.749 25:0.761 26:0.763 27:0.857 28:0.879 29:0.908 30:0.929 31:0.943 32:0.949 33:0.961 34:0.979 35:1.0 36:1.0 37:0.001 38:0.001 39:0.001 40:0.001 41:0.001 42:0.001 43:0.001 44:0.002 45:0.002 46:0.002 47:0.002 48:0.002 49:0.002 50:0.002 51:0.002 52:0.002 53:0.002 54:0.002 55:0.002 56:0.002 57:0.002 58:0.002 59:0.002 60:0.003 61:0.004 62:0.004 63:0.004 64:0.011 65:0.017 66:0.026 67:0.083 68:0.095 69:0.171 70:0.255 71:0.417 72:0.652 73:1.0 74:0.371 75:0.428 76:0.485 77:0.546 78:0.592 79:0.639 80:0.692 81:0.721 82:0.746 83:0.769 84:0.786 85:0.806 86:0.826 87:0.841 88:0.846 89:0.884 90:0.91 91:0.913 92:0.915 93:0.918 94:0.939 95:0.943 96:0.947 97:0.975 98:0.976 99:0.978 100:0.979 101:0.983 102:0.983 103:0.983 104:0.988 105:0.989 106:0.99 107:0.995 108:0.997 109:1.0 110:1.0 
1.3622244267755692 0:0.135 1:0.186 2:0.219 3:0.246 4:0.273 5:0.285 6:0.292 7:0.303 8:0.305 9:0.364 10:0.375 11:0.382 12:0.391 13:0.402 14:0.41 15:0.422 16:0.441 17:0.456 18:0.572 19:0.61 20:0.645 21:0.672 22:0.697 23:0.716 24:0.734 25:0.745 26:0.745 27:0.835 28:0.849 29:0.864 30:0.88 31:0.912 32:0.93 33:0.953 34:0.979 35:1.0 36:1.0 37:0.001 38:0.001 39:0.001 40:0.001 41:0.001 42:0.001 43:0.001 44:0.001 45:0.001 46:0.001 47:0.001 48:0.001 49:0.001 50:0.001 51:0.001 52:0.001 53:0.001 54:0.001 55:0.001 56:0.002 57:0.002 58:0.002 59:0.002 60:0.002 61:0.002 62:0.003 63:0.003 64:0.012 65:0.016 66:0.026 67:0.071 68:0.087 69:0.157 70:0.252 71:0.432 72:0.671 73:1.0 74:0.358 75:0.416 76:0.474 77:0.532 78:0.578 79:0.625 80:0.686 81:0.717 82:0.749 83:0.778 84:0.802 85:0.82 86:0.836 87:0.851 88:0.86 89:0.888 90:0.915 91:0.92 92:0.921 93:0.927 94:0.952 95:0.952 96:0.955 97:0.978 98:0.981 99:0.982 100:0.983 101:0.985 102:0.985 103:0.987 104:0.994 105:0.994 106:0.994 107:0.996 108:0.996 109:1.0 110:1.0 
2.0 0:0.072 1:0.08 2:0.091 3:0.099 4:0.109 5:0.117 6:0.133 7:0.144 8:0.154 9:0.204 10:0.207 11:0.215 12:0.23 13:0.255 14:0.269 15:0.291 16:0.315 17:0.329 18:0.462 19:0.5 20:0.545 21:0.571 22:0.602 23:0.611 24:0.632 25:0.671 26:0.679 27:0.823 28:0.851 29:0.875 30:0.895 31:0.924 32:0.947 33:0.962 34:0.981 35:1.0 36:1.0 37:0.0 38:0.0 39:0.001 40:0.001 41:0.001 42:0.001 43:0.001 44:0.001 45:0.001 46:0.001 47:0.001 48:0.001 49:0.001 50:0.001 51:0.001 52:0.001 53:0.001 54:0.001 55:0.001 56:0.001 57:0.001 58:0.002 59:0.002 60:0.002 61:0.004 62:0.004 63:0.004 64:0.013 65:0.024 66:0.032 67:0.092 68:0.108 69:0.187 70:0.28 71:0.449 72:0.659 73:1.0 74:0.357 75:0.409 76:0.46 77:0.513 78:0.563 79:0.6 80:0.664 81:0.694 82:0.721 83:0.75 84:0.77 85:0.788 86:0.81 87:0.827 88:0.832 89:0.868 90:0.899 91:0.903 92:0.905 93:0.909 94:0.935 95:0.937 96:0.942 97:0.97 98:0.97 99:0.973 100:0.974 101:0.978 102:0.978 103:0.98 104:0.986 105:0.987 106:0.988 107:0.995 108:0.995 109:1.0 110:1.0 
-0.570112732127342 0:0.054 1:0.069 2:0.08 3:0.088 4:0.11 5:0.12 6:0.148 7:0.18 8:0.195 9:0.246 10:0.264 11:0.284 12:0.303 13:0.334 14:0.354 15:0.382 16:0.413 17:0.418 18:0.469 19:0.492 20:0.528 21:0.576 22:0.631 23:0.671 24:0.699 25:0.722 26:0.735 27:0.81 28:0.832 29:0.866 30:0.893 31:0.924 32:0.94 33:0.961 34:0.983 35:1.0 36:1.0 37:0.001 38:0.001 39:0.003 40:0.003 41:0.004 42:0.004 43:0.004 44:0.004 45:0.004 46:0.004 47:0.004 48:0.005 49:0.006 50:0.006 51:0.006 52:0.006 53:0.007 54:0.007 55:0.008 56:0.008 57:0.008 58:0.01 59:0.011 60:0.013 61:0.015 62:0.017 63:0.017 64:0.023 65:0.025 66:0.03 67:0.07 68:0.091 69:0.165 70:0.256 71:0.443 72:0.742 73:1.0 74:0.298 75:0.377 76:0.445 77:0.523 78:0.577 79:0.637 80:0.7 81:0.731 82:0.758 83:0.787 84:0.81 85:0.824 86:0.842 87:0.857 88:0.87 89:0.904 90:0.92 91:0.927 92:0.93 93:0.935 94:0.961 95:0.963 96:0.966 97:0.976 98:0.978 99:0.982 100:0.985 101:0.988 102:0.988 103:0.99 104:0.992 105:0.992 106:0.994 107:0.995 108:0.997 109:1.0 110:1.0 
-1.3835146828149907 0:0.051 1:0.056 2:0.062 3:0.063 4:0.071 5:0.076 6:0.084 7:0.09 8:0.097 9:0.122 10:0.132 11:0.144 12:0.145 13:0.159 14:0.164 15:0.178 16:0.21 17:0.232 18:0.329 19:0.365 20:0.4 21:0.437 22:0.51 23:0.552 24:0.602 25:0.665 26:0.688 27:0.847 28:0.874 29:0.89 30:0.906 31:0.93 32:0.944 33:0.962 34:0.984 35:1.0 36:1.0 37:0.001 38:0.001 39:0.001 40:0.001 41:0.001 42:0.002 43:0.002 44:0.002 45:0.002 46:0.002 47:0.002 48:0.002 49:0.002 50:0.003 51:0.003 52:0.003 53:0.003 54:0.004 55:0.004 56:0.005 57:0.005 58:0.005 59:0.006 60:0.007 61:0.007 62:0.007 63:0.007 64:0.015 65:0.021 66:0.032 67:0.067 68:0.076 69:0.149 70:0.233 71:0.4 72:0.66 73:1.0 74:0.357 75:0.422 76:0.498 77:0.567 78:0.616 79:0.667 80:0.722 81:0.755 82:0.775 83:0.802 84:0.824 85:0.838 86:0.854 87:0.864 88:0.872 89:0.908 90:0.924 91:0.933 92:0.934 93:0.937 94:0.963 95:0.965 96:0.966 97:0.977 98:0.978 99:0.98 100:0.982 101:0.984 102:0.984 103:0.986 104:0.99 105:0.99 106:0.991 107:0.995 108:0.995 109:1.0 110:1.0 
-2.0 0:0.039 1:0.05 2:0.057 3:0.065 4:0.076 5:0.086 6:0.108 7:0.145 8:0.166 9:0.256 10:0.286 11:0.316 12:0.337 13:0.374 14:0.396 15:0.408 16:0.421 17:0.43 18:0.493 19:0.512 20:0.535 21:0.559 22:0.594 23:0.623 24:0.658 25:0.696 26:0.708 27:0.811 28:0.844 29:0.875 30:0.898 31:0.927 32:0.944 33:0.967 34:0.987 35:1.0 36:1.0 37:0.001 38:0.002 39:0.003 40:0.004 41:0.004 42:0.005 43:0.006 44:0.007 45:0.007 46:0.007 47:0.007 48:0.007 49:0.007 50:0.007 51:0.007 52:0.007 53:0.008 54:0.008 55:0.008 56:0.008 57:0.008 58:0.009 59:0.01 60:0.011 61:0.011 62:0.011 63:0.011 64:0.016 65:0.019 66:0.031 67:0.074 68:0.09 69:0.168 70:0.278 71:0.454 72:0.714 73:1.0 74:0.311 75:0.369 76:0.437 77:0.511 78:0.559 79:0.607 80:0.669 81:0.705 82:0.73 83:0.76 84:0.793 85:0.809 86:0.836 87:0.85 88:0.863 89:0.896 90:0.918 91:0.923 92:0.925 93:0.93 94:0.957 95:0.959 96:0.962 97:0.979 98:0.981 99:0.983 100:0.985 101:0.987 102:0.988 103:0.989 104:0.994 105:0.994 106:0.994 107:0.995 108:0.997 109:1.0 110:1.0 
-2.0 0:0.062 1:0.082 2:0.096 3:0.105 4:0.126 5:0.137 6:0.159 7:0.2 8:0.22 9:0.316 10:0.345 11:0.365 12:0.374 13:0.397 14:0.41 15:0.425 16:0.442 17:0.451 18:0.565 19:0.581 20:0.591 21:0.6 22:0.626 23:0.661 24:0.696 25:0.733 26:0.748 27:0.862 28:0.895 29:0.923 30:0.938 31:0.965 32:0.973 33:0.981 34:0.992 35:1.0 36:1.0 37:0.003 38:0.004 39:0.005 40:0.005 41:0.005 42:0.006 43:0.006 44:0.006 45:0.006 46:0.007 47:0.007 48:0.007 49:0.007 50:0.007 51:0.008 52:0.008 53:0.008 54:0.008 55:0.01 56:0.01 57:0.011 58:0.012 59:0.012 60:0.014 61:0.015 62:0.016 63:0.016 64:0.022 65:0.025 66:0.037 67:0.08 68:0.096 69:0.17 70:0.265 71:0.412 72:0.677 73:1.0 74:0.356 75:0.419 76:0.485 77:0.559 78:0.612 79:0.661 80:0.713 81:0.737 82:0.756 83:0.784 84:0.814 85:0.833 86:0.852 87:0.86 88:0.868 89:0.9 90:0.917 91:0.923 92:0.926 93:0.932 94:0.959 95:0.964 96:0.965 97:0.98 98:0.981 99:0.982 100:0.985 101:0.989 102:0.989 103:0.99 104:0.994 105:0.995 106:0.997 107:0.998 108:0.998 109:1.0 110:1.0 
-0.16907765127486188 0:0.021 1:0.026 2:0.03 3:0.038 4:0.045 5:0.045 6:0.046 7:0.048 8:0.052 9:0.092 10:0.116 11:0.147 12:0.164 13:0.227 14:0.252 15:0.277 16:0.297 17:0.301 18:0.36 19:0.386 20:0.407 21:0.433 22:0.479 23:0.536 24:0.601 25:0.69 26:0.731 27:0.845 28:0.892 29:0.914 30:0.931 31:0.958 32:0.976 33:0.985 34:0.995 35:1.0 36:1.0 37:0.001 38:0.003 39:0.003 40:0.004 41:0.004 42:0.004 43:0.004 44:0.004 45:0.004 46:0.004 47:0.004 48:0.004 49:0.004 50:0.004 51:0.004 52:0.004 53:0.005 54:0.006 55:0.006 56:0.006 57:0.006 58:0.007 59:0.008 60:0.009 61:0.01 62:0.01 63:0.012 64:0.013 65:0.016 66:0.027 67:0.073 68:0.083 69:0.174 70:0.26 71:0.422 72:0.718 73:1.0 74:0.315 75:0.389 76:0.454 77:0.543 78:0.595 79:0.649 80:0.71 81:0.737 82:0.747 83:0.772 84:0.798 85:0.815 86:0.831 87:0.844 88:0.855 89:0.895 90:0.914 91:0.927 92:0.93 93:0.934 94:0.965 95:0.967 96:0.97 97:0.984 98:0.985 99:0.987 100:0.99 101:0.994 102:0.994 103:0.994 104:0.996 105:0.996 106:0.997 107:0.999 108:0.999 109:0.999 110:1.0 
-2.0 0:0.067 1:0.08 2:0.094 3:0.114 4:0.156 5:0.174 6:0.192 7:0.215 8:0.22 9:0.312 10:0.348 11:0.369 12:0.388 13:0.423 14:0.436 15:0.461 16:0.498 17:0.519 18:0.59 19:0.611 20:0.63 21:0.649 22:0.688 23:0.716 24:0.736 25:0.75 26:0.758 27:0.83 28:0.849 29:0.871 30:0.889 31:0.929 32:0.949 33:0.97 34:0.991 35:1.0 36:1.0 37:0.002 38:0.002 39:0.003 40:0.004 41:0.004 42:0.005 43:0.005 44:0.006 45:0.006 46:0.007 47:0.007 48:0.007 49:0.007 50:0.007 51:0.007 52:0.007 53:0.007 54:0.007 55:0.007 56:0.008 57:0.008 58:0.008 59:0.008 60:0.008 61:0.009 62:0.009 63:0.01 64:0.016 65:0.02 66:0.031 67:0.073 68:0.091 69:0.166 70:0.258 71:0.424 72:0.678 73:1.0 74:0.352 75:0.412 76:0.473 77:0.543 78:0.592 79:0.644 80:0.699 81:0.725 82:0.749 83:0.78 84:0.808 85:0.825 86:0.843 87:0.855 88:0.864 89:0.9 90:0.915 91:0.926 92:0.929 93:0.934 94:0.965 95:0.967 96:0.969 97:0.98 98:0.983 99:0.984 100:0.985 101:0.988 102:0.988 103:0.99 104:0.994 105:0.995 106:0.995 107:0.997 108:0.998 109:1.0 110:1.0 
-0.10923541021486735 0:0.08 1:0.091 2:0.109 3:0.123 4:0.153 5:0.17 6:0.181 7:0.191 8:0.196 9:0.254 10:0.266 11:0.27 12:0.276 13:0.288 14:0.297 15:0.314 16:0.359 17:0.394 18:0.466 19:0.491 20:0.52 21:0.55 22:0.585 23:0.614 24:0.65 25:0.687 26:0.699 27:0.82 28:0.837 29:0.858 30:0.883 31:0.91 32:0.932 33:0.958 34:0.992 35:1.0 36:1.0 37:0.002 38:0.002 39:0.003 40:0.003 41:0.003 42:0.003 43:0.003 44:0.003 45:0.003 46:0.003 47:0.003 48:0.003 49:0.003 50:0.003 51:0.003 52:0.003 53:0.004 54:0.004 55:0.004 56:0.004 57:0.004 58:0.004 59:0.004 60:0.004 61:0.005 62:0.006 63:0.006 64:0.012 65:0.019 66:0.03 67:0.074 68:0.087 69:0.148 70:0.244 71:0.399 72:0.658 73:1.0 74:0.363 75:0.427 76:0.494 77:0.57 78:0.617 79:0.668 80:0.719 81:0.747 82:0.763 83:0.787 84:0.819 85:0.836 86:0.859 87:0.87 88:0.877 89:0.899 90:0.913 91:0.924 92:0.925 93:0.93 94:0.957 95:0.962 96:0.965 97:0.979 98:0.98 99:0.98 100:0.981 101:0.986 102:0.986 103:0.988 104:0.992 105:0.992 106:0.992 107:0.996 108:0.997 109:1.0 110:1.0 
-0.7599659531106921 0:0.049 1:0.069 2:0.084 3:0.091 4:0.107 5:0.117 6:0.135 7:0.158 8:0.17 9:0.283 10:0.315 11:0.345 12:0.36 13:0.399 14:0.411 15:0.437 16:0.476 17:0.497 18:0.585 19:0.607 20:0.62 21:0.629 22:0.645 23:0.658 24:0.671 25:0.685 26:0.691 27:0.783 28:0.799 29:0.815 30:0.834 31:0.886 32:0.916 33:0.948 34:0.98 35:1.0 36:1.0 37:0.004 38:0.004 39:0.005 40:0.005 41:0.005 42:0.005 43:0.006 44:0.006 45:0.006 46:0.007 47:0.007 48:0.007 49:0.007 50:0.007 51:0.007 52:0.008 53:0.008 54:0.008 55:0.009 56:0.009 57:0.009 58:0.009 59:0.009 60:0.01 61:0.013 62:0.014 63:0.015 64:0.021 65:0.026 66:0.038 67:0.075 68:0.088 69:0.154 70:0.234 71:0.399 72:0.678 73:1.0 74:0.355 75:0.425 76:0.496 77:0.571 78:0.619 79:0.672 80:0.727 81:0.754 82:0.781 83:0.797 84:0.828 85:0.846 86:0.861 87:0.87 88:0.876 89:0.909 90:0.924 91:0.93 92:0.93 93:0.937 94:0.967 95:0.972 96:0.974 97:0.983 98:0.984 99:0.984 100:0.986 101:0.988 102:0.989 103:0.99 104:0.991 105:0.992 106:0.993 107:0.995 108:0.997 109:1.0 110:1.0 
-1.3254472412587135 0:0.146 1:0.161 2:0.174 3:0.178 4:0.193 5:0.197 6:0.205 7:0.227 8:0.24 9:0.286 10:0.324 11:0.353 12:0.371 13:0.405 14:0.411 15:0.425 16:0.435 17:0.441 18:0.559 19:0.578 20:0.602 21:0.628 22:0.659 23:0.671 24:0.688 25:0.703 26:0.716 27:0.867 28:0.895 29:0.918 30:0.929 31:0.947 32:0.955 33:0.967 34:0.984 35:1.0 36:1.0 37:0.005 38:0.005 39:0.005 40:0.006 41:0.006 42:0.006 43:0.006 44:0.006 45:0.006 46:0.007 47:0.007 48:0.008 49:0.008 50:0.008 51:0.008 52:0.008 53:0.009 54:0.009 55:0.009 56:0.01 57:0.01 58:0.01 59:0.01 60:0.01 61:0.011 62:0.012 63:0.012 64:0.017 65:0.022 66:0.035 67:0.067 68:0.076 69:0.147 70:0.212 71:0.345 72:0.563 73:1.0 74:0.463 75:0.51 76:0.573 77:0.635 78:0.678 79:0.721 80:0.768 81:0.787 82:0.802 83:0.82 84:0.842 85:0.859 86:0.869 87:0.877 88:0.887 89:0.917 90:0.934 91:0.941 92:0.943 93:0.947 94:0.966 95:0.97 96:0.972 97:0.982 98:0.984 99:0.985 100:0.987 101:0.99 102:0.99 103:0.991 104:0.994 105:0.994 106:0.994 107:0.997 108:0.997 109:1.0 110:1.0 
-2.0 0:0.068 1:0.093 2:0.103 3:0.11 4:0.126 5:0.143 6:0.164 7:0.2 8:0.218 9:0.309 10:0.34 11:0.37 12:0.391 13:0.424 14:0.436 15:0.448 16:0.471 17:0.485 18:0.562 19:0.584 20:0.598 21:0.621 22:0.665 23:0.688 24:0.705 25:0.729 26:0.744 27:0.828 28:0.862 29:0.892 30:0.92 31:0.95 32:0.96 33:0.968 34:0.985 35:1.0 36:1.0 37:0.002 38:0.002 39:0.002 40:0.002 41:0.002 42:0.003 43:0.004 44:0.004 45:0.004 46:0.005 47:0.005 48:0.005 49:0.005 50:0.005 51:0.005 52:0.005 53:0.005 54:0.005 55:0.006 56:0.007 57:0.007 58:0.008 59:0.008 60:0.008 61:0.008 62:0.009 63:0.009 64:0.018 65:0.02 66:0.033 67:0.074 68:0.086 69:0.161 70:0.263 71:0.429 72:0.696 73:1.0 74:0.328 75:0.395 76:0.46 77:0.537 78:0.588 79:0.638 80:0.693 81:0.724 82:0.747 83:0.777 84:0.807 85:0.823 86:0.846 87:0.859 88:0.869 89:0.9 90:0.916 91:0.926 92:0.927 93:0.933 94:0.958 95:0.961 96:0.963 97:0.977 98:0.978 99:0.979 100:0.983 101:0.985 102:0.986 103:0.988 104:0.994 105:0.994 106:0.995 107:0.996 108:0.997 109:1.0 110:1.0 
-0.8564091093341033 0:0.069 1:0.085 2:0.098 3:0.106 4:0.128 5:0.136 6:0.149 7:0.176 8:0.193 9:0.3 10:0.332 11:0.375 12:0.391 13:0.445 14:0.459 15:0.47 16:0.489 17:0.505 18:0.554 19:0.568 20:0.578 21:0.595 22:0.621 23:0.635 24:0.664 25:0.69 26:0.702 27:0.785 28:0.81 29:0.843 30:0.872 31:0.917 32:0.934 33:0.956 34:0.988 35:1.0 36:1.0 37:0.002 38:0.003 39:0.003 40:0.003 41:0.003 42:0.003 43:0.004 44:0.004 45:0.004 46:0.004 47:0.004 48:0.004 49:0.004 50:0.004 51:0.005 52:0.005 53:0.005 54:0.005 55:0.006 56:0.006 57:0.006 58:0.007 59:0.007 60:0.007 61:0.008 62:0.008 63:0.008 64:0.017 65:0.021 66:0.031 67:0.072 68:0.082 69:0.167 70:0.25 71:0.408 72:0.649 73:1.0 74:0.377 75:0.427 76:0.5 77:0.566 78:0.604 79:0.651 80:0.709 81:0.735 82:0.756 83:0.785 84:0.808 85:0.823 86:0.835 87:0.851 88:0.859 89:0.9 90:0.924 91:0.93 92:0.933 93:0.935 94:0.963 95:0.965 96:0.966 97:0.979 98:0.98 99:0.982 100:0.984 101:0.988 102:0.988 103:0.988 104:0.993 105:0.993 106:0.994 107:0.996 108:0.997 109:1.0 110:1.0 
-2.0 0:0.072 1:0.087 2:0.101 3:0.124 4:0.157 5:0.17 6:0.195 7:0.225 8:0.238 9:0.307 10:0.338 11:0.357 12:0.364 13:0.383 14:0.391 15:0.401 16:0.411 17:0.416 18:0.507 19:0.528 20:0.548 21:0.582 22:0.625 23:0.657 24:0.679 25:0.7 26:0.713 27:0.802 28:0.829 29:0.848 30:0.871 31:0.903 32:0.929 33:0.956 34:0.99 35:1.0 36:1.0 37:0.001 38:0.001 39:0.002 40:0.002 41:0.002 42:0.002 43:0.002 44:0.002 45:0.002 46:0.002 47:0.003 48:0.003 49:0.003 50:0.003 51:0.003 52:0.004 53:0.004 54:0.004 55:0.005 56:0.007 57:0.008 58:0.008 59:0.008 60:0.009 61:0.01 62:0.01 63:0.011 64:0.017 65:0.021 66:0.034 67:0.075 68:0.085 69:0.168 70:0.265 71:0.431 72:0.661 73:1.0 74:0.365 75:0.418 76:0.477 77:0.541 78:0.583 79:0.634 80:0.697 81:0.723 82:0.747 83:0.779 84:0.802 85:0.819 86:0.838 87:0.85 88:0.857 89:0.9 90:0.919 91:0.926 92:0.929 93:0.931 94:0.957 95:0.961 96:0.963 97:0.977 98:0.981 99:0.982 100:0.986 101:0.988 102:0.988 103:0.99 104:0.994 105:0.995 106:0.995 107:0.997 108:0.997 109:1.0 110:1.0 
-1.1808139451375628 0:0.071 1:0.074 2:0.082 3:0.087 4:0.107 5:0.117 6:0.126 7:0.147 8:0.166 9:0.215 10:0.249 11:0.274 12:0.284 13:0.309 14:0.316 15:0.33 16:0.359 17:0.375 18:0.497 19:0.516 20:0.546 21:0.586 22:0.639 23:0.669 24:0.694 25:0.734 26:0.756 27:0.865 28:0.892 29:0.916 30:0.933 31:0.966 32:0.975 33:0.987 34:0.997 35:1.0 36:1.0 37:0.001 38:0.001 39:0.001 40:0.001 41:0.001 42:0.001 43:0.001 44:0.001 45:0.001 46:0.001 47:0.002 48:0.002 49:0.002 50:0.002 51:0.002 52:0.002 53:0.002 54:0.002 55:0.003 56:0.003 57:0.003 58:0.004 59:0.004 60:0.004 61:0.006 62:0.006 63:0.006 64:0.011 65:0.013 66:0.026 67:0.069 68:0.079 69:0.164 70:0.239 71:0.371 72:0.618 73:1.0 74:0.412 75:0.474 76:0.541 77:0.603 78:0.641 79:0.679 80:0.729 81:0.747 82:0.766 83:0.79 84:0.81 85:0.822 86:0.835 87:0.848 88:0.859 89:0.898 90:0.918 91:0.928 92:0.93 93:0.932 94:0.963 95:0.965 96:0.966 97:0.98 98:0.983 99:0.984 100:0.986 101:0.987 102:0.988 103:0.99 104:0.995 105:0.995 106:0.995 107:0.997 108:0.997 109:1.0 110:1.0 
