svm_type c_svc
kernel_type rbf
gamma 2.0
nr_class 2
total_sv 34
rho -1.1528529979408864
label 1 -1
nr_sv 16 18
SV
15.013256259346386 0:0.14 1:0.166 2:0.188 3:0.205 4:0.222 5:0.235 6:0.248 7:0.259 8:0.265 9:0.36 10:0.373 11:0.39 12:0.403 13:0.423 14:0.439 15:0.462 16:0.482 17:0.493 18:0.684 19:0.715 20:0.744 21:0.766 22:0.785 23:0.8 24:0.813 25:0.82 26:0.824 27:0.888 28:0.897 29:0.911 30:0.924 31:0.939 32:0.954 33:0.974 34:0.989 35:1.0 36:1.0 37:0.008 38:0.008 39:0.008 40:0.008 41:0.008 42:0.008 43:0.008 44:0.008 45:0.008 46:0.008 47:0.008 48:0.008 49:0.008 50:0.008 51:0.008 52:0.008 53:0.008 54:0.008 55:0.009 56:0.009 57:0.01 58:0.01 59:0.01 60:0.011 61:0.013 62:0.014 63:0.014 64:0.025 65:0.035 66:0.055 67:0.112 68:0.125 69:0.193 70:0.269 71:0.406 72:0.591 73:1.0 74:0.434 75:0.48 76:0.531 77:0.572 78:0.612 79:0.653 80:0.693 81:0.718 82:0.747 83:0.77 84:0.784 85:0.803 86:0.815 87:0.831 88:0.84 89:0.869 90:0.885 91:0.891 92:0.895 93:0.898 94:0.94 95:0.942 96:0.945 97:0.961 98:0.964 99:0.967 100:0.969 101:0.974 102:0.976 103:0.978 104:0.987 105:0.988 106:0.99 107:0.995 108:0.997 109:1.0 110:1.0 
32.0 0:0.067 1:0.08 2:0.094 3:0.114 4:0.156 5:0.174 6:0.192 7:0.215 8:0.22 9:0.312 10:0.348 11:0.369 12:0.388 13:0.423 14:0.436 15:0.461 16:0.498 17:0.519 18:0.59 19:0.611 20:0.63 21:0.649 22:0.688 23:0.716 24:0.736 25:0.75 26:0.758 27:0.83 28:0.849 29:0.871 30:0.889 31:0.929 32:0.949 33:0.97 34:0.991 35:1.0 36:1.0 37:0.002 38:0.002 39:0.003 40:0.004 41:0.004 42:0.005 43:0.005 44:0.006 45:0.006 46:0.007 47:0.007 48:0.007 49:0.007 50:0.007 51:0.007 52:0.007 53:0.007 54:0.007 55:0.007 56:0.008 57:0.008 58:0.008 59:0.008 60:0.008 61:0.009 62:0.009 63:0.01 64:0.016 65:0.02 66:0.031 67:0.073 68:0.091 69:0.166 70:0.258 71:0.424 72:0.678 73:1.0 74:0.352 75:0.412 76:0.473 77:0.543 78:0.592 79:0.644 80:0.699 81:0.725 82:0.749 83:0.78 84:0.808 85:0.825 86:0.843 87:0.855 88:0.864 89:0.9 90:0.915 91:0.926 92:0.929 93:0.934 94:0.965 95:0.967 96:0.969 97:0.98 98:0.983 99:0.984 100:0.985 101:0.988 102:0.988 103:0.99 104:0.994 105:0.995 106:0.995 107:0.997 108:0.998 109:1.0 110:1.0 
1.1594442484266547 0:0.078 1:0.082 2:0.09 3:0.096 4:0.099 5:0.101 6:0.11 7:0.111 8:0.115 9:0.172 10:0.174 11:0.175 12:0.175 13:0.18 14:0.18 15:0.184 16:0.188 17:0.195 18:0.341 19:0.38 20:0.423 21:0.482 22:0.561 23:0.615 24:0.661 25:0.686 26:0.693 27:0.888 28:0.9 29:0.918 30:0.929 31:0.954 32:0.972 33:0.988 34:0.997 35:1.0 36:1.0 37:0.007 38:0.008 39:0.008 40:0.008 41:0.008 42:0.008 43:0.008 44:0.008 45:0.008 46:0.008 47:0.008 48:0.008 49:0.008 50:0.008 51:0.008 52:0.008 53:0.008 54:0.008 55:0.009 56:0.009 57:0.01 58:0.01 59:0.011 60:0.011 61:0.016 62:0.018 63:0.018 64:0.041 65:0.052 66:0.075 67:0.154 68:0.176 69:0.258 70:0.367 71:0.485 72:0.606 73:1.0 74:0.409 75:0.44 76:0.475 77:0.501 78:0.534 79:0.566 80:0.597 81:0.625 82:0.658 83:0.691 84:0.714 85:0.736 86:0.754 87:0.769 88:0.784 89:0.811 90:0.837 91:0.843 92:0.846 93:0.85 94:0.905 95:0.91 96:0.914 97:0.939 98:0.942 99:0.95 100:0.952 101:0.961 102:0.962 103:0.962 104:0.978 105:0.979 106:0.981 107:0.989 108:0.992 109:0.999 110:1.0 
5.404115615231654 0:0.08 1:0.091 2:0.109 3:0.123 4:0.153 5:0.17 6:0.181 7:0.191 8:0.196 9:0.254 10:0.266 11:0.27 12:0.276 13:0.288 14:0.297 15:0.314 16:0.359 17:0.394 18:0.466 19:0.491 20:0.52 21:0.55 22:0.585 23:0.614 24:0.65 25:0.687 26:0.699 27:0.82 28:0.837 29:0.858 30:0.883 31:0.91 32:0.932 33:0.958 34:0.992 35:1.0 36:1.0 37:0.002 38:0.002 39:0.003 40:0.003 41:0.003 42:0.003 43:0.003 44:0.003 45:0.003 46:0.003 47:0.003 48:0.003 49:0.003 50:0.003 51:0.003 52:0.003 53:0.004 54:0.004 55:0.004 56:0.004 57:0.004 58:0.004 59:0.004 60:0.004 61:0.005 62:0.006 63:0.006 64:0.012 65:0.019 66:0.03 67:0.074 68:0.087 69:0.148 70:0.244 71:0.399 72:0.658 73:1.0 74:0.363 75:0.427 76:0.494 77:0.57 78:0.617 79:0.668 80:0.719 81:0.747 82:0.763 83:0.787 84:0.819 85:0.836 86:0.859 87:0.87 88:0.877 89:0.899 90:0.913 91:0.924 92:0.925 93:0.93 94:0.957 95:0.962 96:0.965 97:0.979 98:0.98 99:0.98 100:0.981 101:0.986 102:0.986 103:0.988 104:0.992 105:0.992 106:0.992 107:0.996 108:0.997 109:1.0 110:1.0 
1.6536715021861836 0:0.039 1:0.05 2:0.057 3:0.065 4:0.076 5:0.086 6:0.108 7:0.145 8:0.166 9:0.256 10:0.286 11:0.316 12:0.337 13:0.374 14:0.396 15:0.408 16:0.421 17:0.43 18:0.493 19:0.512 20:0.535 21:0.559 22:0.594 23:0.623 24:0.658 25:0.696 26:0.708 27:0.811 28:0.844 29:0.875 30:0.898 31:0.927 32:0.944 33:0.967 34:0.987 35:1.0 36:1.0 37:0.001 38:0.002 39:0.003 40:0.004 41:0.004 42:0.005 43:0.006 44:0.007 45:0.007 46:0.007 47:0.007 48:0.007 49:0.007 50:0.007 51:0.007 52:0.007 53:0.008 54:0.008 55:0.008 56:0.008 57:0.008 58:0.009 59:0.01 60:0.011 61:0.011 62:0.011 63:0.011 64:0.016 65:0.019 66:0.031 67:0.074 68:0.09 69:0.168 70:0.278 71:0.454 72:0.714 73:1.0 74:0.311 75:0.369 76:0.437 77:0.511 78:0.559 79:0.607 80:0.669 81:0.705 82:0.73 83:0.76 84:0.793 85:0.809 86:0.836 87:0.85 88:0.863 89:0.896 90:0.918 91:0.923 92:0.925 93:0.93 94:0.957 95:0.959 96:0.962 97:0.979 98:0.981 99:0.983 100:0.985 101:0.987 102:0.988 103:0.989 104:0.994 105:0.994 106:0.994 107:0.995 108:0.997 109:1.0 110:1.0 
6.257857092250882 0:0.079 1:0.094 2:0.12 3:0.137 4:0.165 5:0.183 6:0.195 7:0.211 8:0.215 9:0.273 10:0.281 11:0.288 12:0.293 13:0.307 14:0.312 15:0.327 16:0.34 17:0.346 18:0.493 19:0.533 20:0.589 21:0.642 22:0.687 23:0.716 24:0.744 25:0.761 26:0.768 27:0.897 28:0.907 29:0.921 30:0.931 31:0.951 32:0.965 33:0.983 34:0.994 35:1.0 36:1.0 37:0.003 38:0.003 39:0.003 40:0.003 41:0.003 42:0.003 43:0.003 44:0.003 45:0.003 46:0.003 47:0.003 48:0.003 49:0.003 50:0.003 51:0.003 52:0.003 53:0.003 54:0.003 55:0.004 56:0.004 57:0.005 58:0.005 59:0.006 60:0.006 61:0.009 62:0.01 63:0.011 64:0.028 65:0.043 66:0.063 67:0.133 68:0.15 69:0.247 70:0.343 71:0.481 72:0.655 73:1.0 74:0.367 75:0.414 76:0.449 77:0.497 78:0.536 79:0.572 80:0.609 81:0.645 82:0.674 83:0.706 84:0.729 85:0.752 86:0.768 87:0.785 88:0.795 89:0.835 90:0.859 91:0.865 92:0.868 93:0.872 94:0.923 95:0.927 96:0.93 97:0.949 98:0.955 99:0.961 100:0.963 101:0.968 102:0.969 103:0.972 104:0.982 105:0.984 106:0.987 107:0.993 108:0.995 109:0.999 110:1.0 
0.5180481895783936 0:0.051 1:0.056 2:0.062 3:0.063 4:0.071 5:0.076 6:0.084 7:0.09 8:0.097 9:0.122 10:0.132 11:0.144 12:0.145 13:0.159 14:0.164 15:0.178 16:0.21 17:0.232 18:0.329 19:0.365 20:0.4 21:0.437 22:0.51 23:0.552 24:0.602 25:0.665 26:0.688 27:0.847 28:0.874 29:0.89 30:0.906 31:0.93 32:0.944 33:0.962 34:0.984 35:1.0 36:1.0 37:0.001 38:0.001 39:0.001 40:0.001 41:0.001 42:0.002 43:0.002 44:0.002 45:0.002 46:0.002 47:0.002 48:0.002 49:0.002 50:0.003 51:0.003 52:0.003 53:0.003 54:0.004 55:0.004 56:0.005 57:0.005 58:0.005 59:0.006 60:0.007 61:0.007 62:0.007 63:0.007 64:0.015 65:0.021 66:0.032 67:0.067 68:0.076 69:0.149 70:0.233 71:0.4 72:0.66 73:1.0 74:0.357 75:0.422 76:0.498 77:0.567 78:0.616 79:0.667 80:0.722 81:0.755 82:0.775 83:0.802 84:0.824 85:0.838 86:0.854 87:0.864 88:0.872 89:0.908 90:0.924 91:0.933 92:0.934 93:0.937 94:0.963 95:0.965 96:0.966 97:0.977 98:0.978 99:0.98 100:0.982 101:0.984 102:0.984 103:0.986 104:0.99 105:0.99 106:0.991 107:0.995 108:0.995 109:1.0 110:1.0 
32.0 0:0.141 1:0.162 2:0.194 3:0.216 4:0.237 5:0.246 6:0.259 7:0.266 8:0.267 9:0.361 10:0.38 11:0.395 12:0.414 13:0.441 14:0.456 15:0.477 16:0.496 17:0.501 18:0.623 19:0.648 20:0.672 21:0.697 22:0.717 23:0.728 24:0.741 25:0.748 26:0.75 27:0.843 28:0.856 29:0.874 30:0.891 31:0.915 32:0.935 33:0.967 34:0.989 35:1.0 36:1.0 37:0.003 38:0.003 39:0.003 40:0.003 41:0.003 42:0.003 43:0.003 44:0.003 45:0.003 46:0.003 47:0.003 48:0.003 49:0.003 50:0.003 51:0.003 52:0.003 53:0.003 54:0.003 55:0.003 56:0.003 57:0.003 58:0.004 59:0.004 60:0.005 61:0.007 62:0.008 63:0.008 64:0.024 65:0.035 66:0.054 67:0.129 68:0.149 69:0.246 70:0.349 71:0.469 72:0.613 73:1.0 74:0.399 75:0.43 76:0.466 77:0.506 78:0.541 79:0.571 80:0.614 81:0.639 82:0.667 83:0.693 84:0.717 85:0.738 86:0.752 87:0.776 88:0.787 89:0.827 90:0.856 91:0.864 92:0.868 93:0.872 94:0.924 95:0.928 96:0.929 97:0.955 98:0.959 99:0.963 100:0.965 101:0.969 102:0.97 103:0.973 104:0.985 105:0.986 106:0.987 107:0.994 108:0.996 109:1.0 110:1.0 
1.9951325150902712 0:0.061 1:0.069 2:0.078 3:0.091 4:0.111 5:0.119 6:0.13 7:0.146 8:0.155 9:0.236 10:0.261 11:0.287 12:0.322 13:0.367 14:0.39 15:0.413 16:0.436 17:0.445 18:0.494 19:0.507 20:0.523 21:0.544 22:0.58 23:0.594 24:0.609 25:0.625 26:0.634 27:0.725 28:0.762 29:0.799 30:0.823 31:0.866 32:0.893 33:0.929 34:0.972 35:1.0 36:1.0 37:0.004 38:0.004 39:0.005 40:0.005 41:0.005 42:0.005 43:0.005 44:0.005 45:0.005 46:0.005 47:0.005 48:0.005 49:0.005 50:0.005 51:0.005 52:0.005 53:0.006 54:0.006 55:0.007 56:0.007 57:0.007 58:0.007 59:0.007 60:0.007 61:0.008 62:0.008 63:0.009 64:0.015 65:0.021 66:0.034 67:0.073 68:0.084 69:0.161 70:0.257 71:0.431 72:0.699 73:1.0 74:0.33 75:0.398 76:0.463 77:0.539 78:0.586 79:0.64 80:0.699 81:0.73 82:0.757 83:0.787 84:0.816 85:0.835 86:0.846 87:0.857 88:0.87 89:0.905 90:0.92 91:0.932 92:0.933 93:0.938 94:0.96 95:0.962 96:0.964 97:0.977 98:0.979 99:0.983 100:0.986 101:0.989 102:0.989 103:0.989 104:0.992 105:0.993 106:0.993 107:0.996 108:0.997 109:1.0 110:1.0 
3.4139897120763223 0:0.111 1:0.137 2:0.169 3:0.195 4:0.219 5:0.234 6:0.249 7:0.257 8:0.258 9:0.313 10:0.324 11:0.339 12:0.349 13:0.358 14:0.364 15:0.377 16:0.394 17:0.402 18:0.524 19:0.55 20:0.581 21:0.628 22:0.664 23:0.697 24:0.725 25:0.738 26:0.743 27:0.857 28:0.868 29:0.891 30:0.906 31:0.928 32:0.949 33:0.975 34:0.992 35:1.0 36:1.0 37:0.003 38:0.003 39:0.003 40:0.003 41:0.003 42:0.004 43:0.004 44:0.004 45:0.004 46:0.004 47:0.004 48:0.004 49:0.004 50:0.004 51:0.004 52:0.004 53:0.004 54:0.004 55:0.005 56:0.005 57:0.005 58:0.005 59:0.006 60:0.007 61:0.011 62:0.012 63:0.013 64:0.028 65:0.041 66:0.057 67:0.119 68:0.141 69:0.232 70:0.341 71:0.5 72:0.678 73:1.0 74:0.338 75:0.38 76:0.425 77:0.47 78:0.515 79:0.557 80:0.604 81:0.642 82:0.672 83:0.71 84:0.732 85:0.758 86:0.774 87:0.79 88:0.807 89:0.842 90:0.864 91:0.874 92:0.879 93:0.885 94:0.923 95:0.925 96:0.928 97:0.947 98:0.952 99:0.96 100:0.962 101:0.969 102:0.969 103:0.971 104:0.981 105:0.982 106:0.984 107:0.992 108:0.994 109:1.0 110:1.0 
7.485855142618711 0:0.068 1:0.093 2:0.103 3:0.11 4:0.126 5:0.143 6:0.164 7:0.2 8:0.218 9:0.309 10:0.34 11:0.37 12:0.391 13:0.424 14:0.436 15:0.448 16:0.471 17:0.485 18:0.562 19:0.584 20:0.598 21:0.621 22:0.665 23:0.688 24:0.705 25:0.729 26:0.744 27:0.828 28:0.862 29:0.892 30:0.92 31:0.95 32:0.96 33:0.968 34:0.985 35:1.0 36:1.0 37:0.002 38:0.002 39:0.002 40:0.002 41:0.002 42:0.003 43:0.004 44:0.004 45:0.004 46:0.005 47:0.005 48:0.005 49:0.005 50:0.005 51:0.005 52:0.005 53:0.005 54:0.005 55:0.006 56:0.007 57:0.007 58:0.008 59:0.008 60:0.008 61:0.008 62:0.009 63:0.009 64:0.018 65:0.02 66:0.033 67:0.074 68:0.086 69:0.161 70:0.263 71:0.429 72:0.696 73:1.0 74:0.328 75:0.395 76:0.46 77:0.537 78:0.588 79:0.638 80:0.693 81:0.724 82:0.747 83:0.777 84:0.807 85:0.823 86:0.846 87:0.859 88:0.869 89:0.9 90:0.916 91:0.926 92:0.927 93:0.933 94:0.958 95:0.961 96:0.963 97:0.977 98:0.978 99:0.979 100:0.983 101:0.985 102:0.986 103:0.988 104:0.994 105:0.994 106:0.995 107:0.996 108:0.997 109:1.0 110:1.0 
11.823146437179902 0:0.121 1:0.14 2:0.159 3:0.171 4:0.189 5:0.195 6:0.202 7:0.206 8:0.209 9:0.329 10:0.343 11:0.364 12:0.386 13:0.426 14:0.447 15:0.482 16:0.5 17:0.503 18:0.651 19:0.668 20:0.694 21:0.709 22:0.728 23:0.736 24:0.744 25:0.749 26:0.749 27:0.816 28:0.826 29:0.847 30:0.866 31:0.898 32:0.919 33:0.963 34:0.99 35:1.0 36:1.0 37:0.003 38:0.003 39:0.003 40:0.003 41:0.003 42:0.004 43:0.004 44:0.004 45:0.004 46:0.004 47:0.004 48:0.004 49:0.004 50:0.004 51:0.004 52:0.004 53:0.004 54:0.004 55:0.004 56:0.004 57:0.004 58:0.004 59:0.004 60:0.005 61:0.008 62:0.009 63:0.009 64:0.023 65:0.036 66:0.057 67:0.147 68:0.164 69:0.264 70:0.343 71:0.457 72:0.581 73:1.0 74:0.43 75:0.464 76:0.496 77:0.526 78:0.552 79:0.583 80:0.623 81:0.648 82:0.67 83:0.69 84:0.708 85:0.728 86:0.74 87:0.758 88:0.766 89:0.821 90:0.84 91:0.848 92:0.852 93:0.856 94:0.925 95:0.926 96:0.928 97:0.952 98:0.955 99:0.961 100:0.965 101:0.97 102:0.97 103:0.972 104:0.985 105:0.985 106:0.987 107:0.995 108:0.997 109:1.0 110:1.0 
8.03662741106568 0:0.131 1:0.155 2:0.189 3:0.209 4:0.233 5:0.249 6:0.272 7:0.288 8:0.292 9:0.438 10:0.447 11:0.465 12:0.48 13:0.509 14:0.524 15:0.548 16:0.56 17:0.566 18:0.679 19:0.689 20:0.714 21:0.733 22:0.754 23:0.769 24:0.79 25:0.8 26:0.806 27:0.885 28:0.894 29:0.911 30:0.926 31:0.951 32:0.965 33:0.986 34:0.996 35:1.0 36:1.0 37:0.005 38:0.005 39:0.005 40:0.005 41:0.005 42:0.005 43:0.005 44:0.006 45:0.006 46:0.006 47:0.006 48:0.006 49:0.006 50:0.006 51:0.006 52:0.006 53:0.006 54:0.006 55:0.006 56:0.006 57:0.007 58:0.007 59:0.007 60:0.007 61:0.01 62:0.011 63:0.011 64:0.026 65:0.039 66:0.061 67:0.149 68:0.164 69:0.258 70:0.336 71:0.447 72:0.581 73:1.0 74:0.432 75:0.465 76:0.501 77:0.535 78:0.565 79:0.596 80:0.635 81:0.662 82:0.682 83:0.704 84:0.718 85:0.738 86:0.75 87:0.766 88:0.772 89:0.821 90:0.843 91:0.849 92:0.853 93:0.857 94:0.92 95:0.921 96:0.922 97:0.952 98:0.954 99:0.96 100:0.961 101:0.966 102:0.968 103:0.971 104:0.984 105:0.985 106:0.986 107:0.995 108:0.997 109:1.0 110:1.0 
32.0 0:0.134 1:0.153 2:0.17 3:0.186 4:0.202 5:0.209 6:0.223 7:0.235 8:0.24 9:0.346 10:0.356 11:0.372 12:0.386 13:0.41 14:0.423 15:0.446 16:0.46 17:0.471 18:0.628 19:0.657 20:0.687 21:0.704 22:0.728 23:0.74 24:0.754 25:0.764 26:0.766 27:0.869 28:0.884 29:0.898 30:0.915 31:0.934 32:0.948 33:0.973 34:0.989 35:1.0 36:1.0 37:0.006 38:0.006 39:0.006 40:0.006 41:0.006 42:0.006 43:0.006 44:0.006 45:0.006 46:0.006 47:0.006 48:0.006 49:0.006 50:0.006 51:0.006 52:0.006 53:0.006 54:0.006 55:0.007 56:0.008 57:0.008 58:0.008 59:0.008 60:0.009 61:0.013 62:0.014 63:0.014 64:0.027 65:0.037 66:0.055 67:0.119 68:0.133 69:0.211 70:0.292 71:0.413 72:0.565 73:1.0 74:0.454 75:0.493 76:0.533 77:0.571 78:0.599 79:0.635 80:0.675 81:0.699 82:0.725 83:0.744 84:0.763 85:0.782 86:0.795 87:0.814 88:0.821 89:0.853 90:0.875 91:0.881 92:0.885 93:0.888 94:0.934 95:0.937 96:0.938 97:0.958 98:0.96 99:0.966 100:0.968 101:0.973 102:0.974 103:0.976 104:0.984 105:0.985 106:0.987 107:0.994 108:0.995 109:1.0 110:1.0 
7.039342131291492 0:0.12 1:0.138 2:0.156 3:0.169 4:0.182 5:0.193 6:0.202 7:0.211 8:0.214 9:0.298 10:0.318 11:0.347 12:0.377 13:0.421 14:0.447 15:0.471 16:0.486 17:0.493 18:0.654 19:0.678 20:0.698 21:0.715 22:0.732 23:0.74 24:0.757 25:0.768 26:0.772 27:0.877 28:0.89 29:0.905 30:0.918 31:0.941 32:0.954 33:0.98 34:0.991 35:1.0 36:1.0 37:0.006 38:0.006 39:0.006 40:0.006 41:0.006 42:0.006 43:0.006 44:0.006 45:0.006 46:0.006 47:0.006 48:0.006 49:0.007 50:0.007 51:0.007 52:0.007 53:0.007 54:0.007 55:0.007 56:0.008 57:0.008 58:0.008 59:0.008 60:0.01 61:0.014 62:0.014 63:0.014 64:0.027 65:0.041 66:0.058 67:0.129 68:0.147 69:0.234 70:0.32 71:0.433 72:0.576 73:1.0 74:0.44 75:0.475 76:0.511 77:0.549 78:0.579 79:0.609 80:0.649 81:0.674 82:0.7 83:0.725 84:0.742 85:0.761 86:0.774 87:0.792 88:0.803 89:0.844 90:0.862 91:0.868 92:0.872 93:0.877 94:0.924 95:0.927 96:0.929 97:0.952 98:0.956 99:0.961 100:0.964 101:0.968 102:0.968 103:0.97 104:0.979 105:0.98 106:0.982 107:0.991 108:0.994 109:1.0 110:1.0 
14.77525135467301 0:0.083 1:0.117 2:0.156 3:0.206 4:0.257 5:0.289 6:0.318 7:0.333 8:0.337 9:0.424 10:0.432 11:0.444 12:0.452 13:0.468 14:0.477 15:0.489 16:0.498 17:0.502 18:0.599 19:0.625 20:0.673 21:0.724 22:0.776 23:0.814 24:0.845 25:0.862 26:0.866 27:0.951 28:0.958 29:0.967 30:0.972 31:0.981 32:0.982 33:0.991 34:0.997 35:1.0 36:1.0 37:0.003 38:0.004 39:0.004 40:0.004 41:0.004 42:0.004 43:0.004 44:0.004 45:0.004 46:0.005 47:0.005 48:0.005 49:0.005 50:0.005 51:0.005 52:0.005 53:0.005 54:0.005 55:0.005 56:0.005 57:0.005 58:0.005 59:0.005 60:0.006 61:0.009 62:0.011 63:0.012 64:0.031 65:0.046 66:0.074 67:0.159 68:0.178 69:0.274 70:0.354 71:0.494 72:0.698 73:1.0 74:0.322 75:0.371 76:0.425 77:0.482 78:0.523 79:0.563 80:0.606 81:0.638 82:0.668 83:0.688 84:0.704 85:0.728 86:0.737 87:0.758 88:0.768 89:0.819 90:0.835 91:0.842 92:0.847 93:0.849 94:0.913 95:0.917 96:0.92 97:0.942 98:0.947 99:0.951 100:0.955 101:0.965 102:0.966 103:0.968 104:0.98 105:0.982 106:0.984 107:0.991 108:0.994 109:1.0 110:1.0 
-5.013316128128449 0:0.066 1:0.077 2:0.105 3:0.132 4:0.169 5:0.195 6:0.229 7:0.262 8:0.277 9:0.377 10:0.404 11:0.428 12:0.446 13:0.483 14:0.502 15:0.521 16:0.53 17:0.535 18:0.608 19:0.637 20:0.674 21:0.699 22:0.718 23:0.734 24:0.751 25:0.77 26:0.776 27:0.852 28:0.868 29:0.891 30:0.915 31:0.949 32:0.962 33:0.972 34:0.986 35:1.0 36:1.0 37:0.001 38:0.001 39:0.001 40:0.001 41:0.001 42:0.001 43:0.001 44:0.001 45:0.001 46:0.001 47:0.001 48:0.001 49:0.001 50:0.001 51:0.002 52:0.002 53:0.002 54:0.002 55:0.002 56:0.002 57:0.002 58:0.002 59:0.002 60:0.002 61:0.002 62:0.003 63:0.003 64:0.014 65:0.026 66:0.04 67:0.112 68:0.123 69:0.229 70:0.313 71:0.481 72:0.708 73:1.0 74:0.321 75:0.368 76:0.423 77:0.484 78:0.53 79:0.575 80:0.633 81:0.661 82:0.691 83:0.72 84:0.74 85:0.758 86:0.774 87:0.787 88:0.796 89:0.843 90:0.878 91:0.884 92:0.886 93:0.888 94:0.925 95:0.926 96:0.928 97:0.961 98:0.962 99:0.965 100:0.971 101:0.974 102:0.974 103:0.977 104:0.983 105:0.983 106:0.984 107:0.989 108:0.993 109:1.0 110:1.0 
-13.068442559032393 0:0.085 1:0.133 2:0.18 3:0.206 4:0.265 5:0.274 6:0.303 7:0.317 8:0.318 9:0.446 10:0.455 11:0.467 12:0.471 13:0.485 14:0.489 15:0.505 16:0.516 17:0.521 18:0.638 19:0.682 20:0.713 21:0.739 22:0.8 23:0.822 24:0.846 25:0.869 26:0.871 27:0.928 28:0.933 29:0.941 30:0.942 31:0.951 32:0.958 33:0.977 34:0.993 35:1.0 36:1.0 37:0.001 38:0.001 39:0.001 40:0.001 41:0.001 42:0.001 43:0.001 44:0.001 45:0.001 46:0.001 47:0.001 48:0.001 49:0.001 50:0.001 51:0.001 52:0.001 53:0.001 54:0.001 55:0.002 56:0.002 57:0.002 58:0.002 59:0.002 60:0.002 61:0.002 62:0.003 63:0.003 64:0.015 65:0.029 66:0.042 67:0.151 68:0.167 69:0.291 70:0.378 71:0.511 72:0.638 73:1.0 74:0.371 75:0.397 76:0.431 77:0.47 78:0.492 79:0.532 80:0.582 81:0.606 82:0.625 83:0.651 84:0.672 85:0.69 86:0.708 87:0.723 88:0.732 89:0.799 90:0.834 91:0.839 92:0.84 93:0.847 94:0.9 95:0.902 96:0.905 97:0.96 98:0.96 99:0.965 100:0.965 101:0.969 102:0.97 103:0.972 104:0.981 105:0.981 106:0.982 107:0.993 108:0.996 109:1.0 110:1.0 
-5.714120814169553 0:0.087 1:0.111 2:0.133 3:0.148 4:0.159 5:0.17 6:0.185 7:0.2 8:0.205 9:0.26 10:0.274 11:0.294 12:0.312 13:0.346 14:0.373 15:0.409 16:0.449 17:0.472 18:0.62 19:0.642 20:0.658 21:0.676 22:0.699 23:0.713 24:0.734 25:0.751 26:0.766 27:0.882 28:0.891 29:0.903 30:0.909 31:0.926 32:0.942 33:0.965 34:0.985 35:1.0 36:1.0 37:0.002 38:0.002 39:0.002 40:0.002 41:0.002 42:0.002 43:0.002 44:0.002 45:0.002 46:0.002 47:0.002 48:0.002 49:0.002 50:0.002 51:0.002 52:0.002 53:0.002 54:0.002 55:0.002 56:0.002 57:0.002 58:0.002 59:0.002 60:0.002 61:0.003 62:0.003 63:0.004 64:0.012 65:0.016 66:0.025 67:0.079 68:0.089 69:0.16 70:0.237 71:0.419 72:0.657 73:1.0 74:0.369 75:0.425 76:0.481 77:0.544 78:0.594 79:0.65 80:0.705 81:0.737 82:0.768 83:0.798 84:0.812 85:0.826 86:0.84 87:0.853 88:0.861 89:0.89 90:0.914 91:0.918 92:0.921 93:0.923 94:0.953 95:0.954 96:0.956 97:0.977 98:0.978 99:0.982 100:0.982 101:0.985 102:0.986 103:0.986 104:0.993 105:0.994 106:0.994 107:0.997 108:0.998 109:1.0 110:1.0 
-10.55370634180504 0:0.081 1:0.121 2:0.18 3:0.212 4:0.235 5:0.249 6:0.258 7:0.265 8:0.268 9:0.32 10:0.33 11:0.343 12:0.355 13:0.371 14:0.377 15:0.395 16:0.416 17:0.442 18:0.612 19:0.666 20:0.696 21:0.714 22:0.749 23:0.768 24:0.782 25:0.787 26:0.789 27:0.878 28:0.882 29:0.888 30:0.895 31:0.932 32:0.943 33:0.975 34:0.992 35:1.0 36:1.0 37:0.003 38:0.003 39:0.003 40:0.003 41:0.003 42:0.003 43:0.003 44:0.003 45:0.003 46:0.003 47:0.003 48:0.003 49:0.003 50:0.003 51:0.003 52:0.003 53:0.003 54:0.003 55:0.003 56:0.003 57:0.003 58:0.003 59:0.003 60:0.004 61:0.006 62:0.007 63:0.007 64:0.016 65:0.024 66:0.037 67:0.098 68:0.11 69:0.196 70:0.28 71:0.437 72:0.645 73:1.0 74:0.39 75:0.435 76:0.485 77:0.532 78:0.576 79:0.621 80:0.666 81:0.697 82:0.726 83:0.761 84:0.78 85:0.798 86:0.808 87:0.822 88:0.826 89:0.87 90:0.896 91:0.899 92:0.902 93:0.905 94:0.934 95:0.937 96:0.937 97:0.971 98:0.971 99:0.974 100:0.976 101:0.979 102:0.98 103:0.981 104:0.988 105:0.99 106:0.99 107:0.997 108:0.997 109:1.0 110:1.0 
-8.06443494130153 0:0.093 1:0.131 2:0.158 3:0.172 4:0.183 5:0.186 6:0.195 7:0.204 8:0.207 9:0.306 10:0.331 11:0.356 12:0.369 13:0.404 14:0.428 15:0.459 16:0.487 17:0.506 18:0.604 19:0.628 20:0.647 21:0.661 22:0.696 23:0.715 24:0.735 25:0.749 26:0.755 27:0.842 28:0.862 29:0.885 30:0.903 31:0.94 32:0.962 33:0.98 34:0.994 35:1.0 36:1.0 37:0.002 38:0.002 39:0.002 40:0.002 41:0.002 42:0.002 43:0.002 44:0.002 45:0.002 46:0.002 47:0.002 48:0.002 49:0.002 50:0.002 51:0.002 52:0.002 53:0.002 54:0.002 55:0.002 56:0.003 57:0.003 58:0.004 59:0.004 60:0.004 61:0.004 62:0.004 63:0.005 64:0.014 65:0.024 66:0.046 67:0.102 68:0.117 69:0.211 70:0.315 71:0.485 72:0.679 73:1.0 74:0.341 75:0.387 76:0.438 77:0.489 78:0.525 79:0.578 80:0.631 81:0.661 82:0.689 83:0.727 84:0.748 85:0.769 86:0.789 87:0.804 88:0.812 89:0.855 90:0.887 91:0.893 92:0.896 93:0.9 94:0.935 95:0.937 96:0.941 97:0.963 98:0.966 99:0.967 100:0.969 101:0.977 102:0.978 103:0.98 104:0.99 105:0.99 106:0.99 107:0.996 108:0.997 109:1.0 110:1.0 
-32.0 0:0.117 1:0.135 2:0.154 3:0.158 4:0.175 5:0.18 6:0.195 7:0.207 8:0.21 9:0.329 10:0.338 11:0.355 12:0.364 13:0.399 14:0.418 15:0.448 16:0.476 17:0.498 18:0.607 19:0.634 20:0.659 21:0.673 22:0.702 23:0.709 24:0.726 25:0.731 26:0.731 27:0.85 28:0.863 29:0.882 30:0.89 31:0.917 32:0.935 33:0.961 34:0.983 35:1.0 36:1.0 37:0.001 38:0.001 39:0.001 40:0.001 41:0.001 42:0.001 43:0.002 44:0.002 45:0.002 46:0.002 47:0.002 48:0.002 49:0.002 50:0.002 51:0.002 52:0.002 53:0.002 54:0.002 55:0.002 56:0.002 57:0.002 58:0.002 59:0.003 60:0.003 61:0.004 62:0.004 63:0.004 64:0.015 65:0.022 66:0.032 67:0.109 68:0.118 69:0.212 70:0.281 71:0.415 72:0.554 73:1.0 74:0.465 75:0.502 76:0.537 77:0.567 78:0.594 79:0.636 80:0.68 81:0.702 82:0.726 83:0.746 84:0.761 85:0.774 86:0.789 87:0.803 88:0.811 89:0.852 90:0.882 91:0.888 92:0.89 93:0.893 94:0.934 95:0.936 96:0.937 97:0.968 98:0.97 99:0.973 100:0.977 101:0.978 102:0.979 103:0.98 104:0.989 105:0.989 106:0.989 107:0.994 108:0.996 109:1.0 110:1.0 
-2.8606508848241257 0:0.1 1:0.133 2:0.16 3:0.181 4:0.198 5:0.203 6:0.211 7:0.216 8:0.218 9:0.287 10:0.312 11:0.347 12:0.372 13:0.416 14:0.44 15:0.475 16:0.496 17:0.506 18:0.603 19:0.621 20:0.642 21:0.66 22:0.687 23:0.699 24:0.73 25:0.755 26:0.758 27:0.859 28:0.877 29:0.898 30:0.908 31:0.934 32:0.947 33:0.957 34:0.978 35:1.0 36:1.0 37:0.001 38:0.001 39:0.002 40:0.002 41:0.004 42:0.004 43:0.004 44:0.004 45:0.004 46:0.004 47:0.004 48:0.004 49:0.004 50:0.004 51:0.005 52:0.005 53:0.005 54:0.005 55:0.005 56:0.005 57:0.006 58:0.006 59:0.006 60:0.006 61:0.007 62:0.007 63:0.007 64:0.016 65:0.025 66:0.034 67:0.104 68:0.12 69:0.206 70:0.294 71:0.455 72:0.663 73:1.0 74:0.364 75:0.406 76:0.462 77:0.51 78:0.552 79:0.598 80:0.654 81:0.682 82:0.71 83:0.738 84:0.762 85:0.781 86:0.799 87:0.811 88:0.819 89:0.853 90:0.881 91:0.889 92:0.892 93:0.896 94:0.932 95:0.935 96:0.94 97:0.97 98:0.971 99:0.974 100:0.976 101:0.979 102:0.98 103:0.981 104:0.989 105:0.989 106:0.99 107:0.997 108:0.998 109:1.0 110:1.0 
-5.406102725916502 0:0.078 1:0.102 2:0.122 3:0.137 4:0.156 5:0.165 6:0.186 7:0.201 8:0.207 9:0.271 10:0.294 11:0.328 12:0.355 13:0.387 14:0.401 15:0.43 16:0.448 17:0.462 18:0.539 19:0.569 20:0.596 21:0.625 22:0.654 23:0.667 24:0.691 25:0.708 26:0.711 27:0.785 28:0.808 29:0.842 30:0.873 31:0.904 32:0.923 33:0.958 34:0.987 35:1.0 36:1.0 37:0.002 38:0.002 39:0.002 40:0.002 41:0.002 42:0.003 43:0.003 44:0.003 45:0.003 46:0.003 47:0.003 48:0.003 49:0.003 50:0.003 51:0.003 52:0.003 53:0.003 54:0.003 55:0.003 56:0.004 57:0.004 58:0.004 59:0.004 60:0.005 61:0.007 62:0.007 63:0.007 64:0.015 65:0.024 66:0.034 67:0.099 68:0.115 69:0.208 70:0.301 71:0.495 72:0.745 73:1.0 74:0.275 75:0.341 76:0.401 77:0.461 78:0.518 79:0.58 80:0.638 81:0.673 82:0.708 83:0.731 84:0.754 85:0.774 86:0.794 87:0.809 88:0.824 89:0.867 90:0.887 91:0.894 92:0.897 93:0.902 94:0.942 95:0.944 96:0.946 97:0.973 98:0.973 99:0.975 100:0.976 101:0.981 102:0.982 103:0.982 104:0.987 105:0.987 106:0.988 107:0.996 108:0.997 109:1.0 110:1.0 
-0.8300595986071957 0:0.141 1:0.189 2:0.22 3:0.239 4:0.266 5:0.281 6:0.297 7:0.311 8:0.315 9:0.371 10:0.375 11:0.386 12:0.392 13:0.407 14:0.418 15:0.433 16:0.453 17:0.482 18:0.656 19:0.702 20:0.735 21:0.749 22:0.776 23:0.785 24:0.804 25:0.827 26:0.836 27:0.896 28:0.903 29:0.908 30:0.911 31:0.925 32:0.933 33:0.952 34:0.974 35:1.0 36:1.0 37:0.001 38:0.001 39:0.001 40:0.001 41:0.001 42:0.001 43:0.002 44:0.002 45:0.002 46:0.002 47:0.002 48:0.002 49:0.002 50:0.002 51:0.002 52:0.002 53:0.002 54:0.002 55:0.002 56:0.003 57:0.003 58:0.003 59:0.003 60:0.003 61:0.004 62:0.004 63:0.004 64:0.013 65:0.019 66:0.028 67:0.085 68:0.096 69:0.16 70:0.245 71:0.401 72:0.645 73:1.0 74:0.387 75:0.44 76:0.499 77:0.56 78:0.61 79:0.65 80:0.705 81:0.735 82:0.756 83:0.787 84:0.805 85:0.826 86:0.842 87:0.853 88:0.86 89:0.885 90:0.907 91:0.91 92:0.912 93:0.915 94:0.943 95:0.946 96:0.948 97:0.976 98:0.978 99:0.979 100:0.981 101:0.983 102:0.984 103:0.984 104:0.991 105:0.991 106:0.992 107:0.997 108:0.997 109:1.0 110:1.0 
-9.03659525923004 0:0.072 1:0.08 2:0.091 3:0.099 4:0.109 5:0.117 6:0.133 7:0.144 8:0.154 9:0.204 10:0.207 11:0.215 12:0.23 13:0.255 14:0.269 15:0.291 16:0.315 17:0.329 18:0.462 19:0.5 20:0.545 21:0.571 22:0.602 23:0.611 24:0.632 25:0.671 26:0.679 27:0.823 28:0.851 29:0.875 30:0.895 31:0.924 32:0.947 33:0.962 34:0.981 35:1.0 36:1.0 37:0.0 38:0.0 39:0.001 40:0.001 41:0.001 42:0.001 43:0.001 44:0.001 45:0.001 46:0.001 47:0.001 48:0.001 49:0.001 50:0.001 51:0.001 52:0.001 53:0.001 54:0.001 55:0.001 56:0.001 57:0.001 58:0.002 59:0.002 60:0.002 61:0.004 62:0.004 63:0.004 64:0.013 65:0.024 66:0.032 67:0.092 68:0.108 69:0.187 70:0.28 71:0.449 72:0.659 73:1.0 74:0.357 75:0.409 76:0.46 77:0.513 78:0.563 79:0.6 80:0.664 81:0.694 82:0.721 83:0.75 84:0.77 85:0.788 86:0.81 87:0.827 88:0.832 89:0.868 90:0.899 91:0.903 92:0.905 93:0.909 94:0.935 95:0.937 96:0.942 97:0.97 98:0.97 99:0.973 100:0.974 101:0.978 102:0.978 103:0.98 104:0.986 105:0.987 106:0.988 107:0.995 108:0.995 109:1.0 110:1.0 
-4.916153619814195 0:0.106 1:0.128 2:0.151 3:0.164 4:0.186 5:0.196 6:0.213 7:0.227 8:0.234 9:0.319 10:0.331 11:0.345 12:0.352 13:0.375 14:0.395 15:0.428 16:0.469 17:0.491 18:0.649 19:0.695 20:0.725 21:0.739 22:0.757 23:0.766 24:0.774 25:0.778 26:0.779 27:0.845 28:0.853 29:0.865 30:0.88 31:0.907 32:0.927 33:0.949 34:0.979 35:1.0 36:1.0 37:0.004 38:0.004 39:0.004 40:0.004 41:0.004 42:0.005 43:0.005 44:0.005 45:0.005 46:0.005 47:0.005 48:0.005 49:0.005 50:0.005 51:0.005 52:0.005 53:0.005 54:0.005 55:0.005 56:0.006 57:0.006 58:0.006 59:0.006 60:0.006 61:0.007 62:0.007 63:0.007 64:0.017 65:0.026 66:0.038 67:0.104 68:0.118 69:0.203 70:0.291 71:0.433 72:0.629 73:1.0 74:0.391 75:0.433 76:0.48 77:0.538 78:0.58 79:0.62 80:0.669 81:0.692 82:0.718 83:0.749 84:0.771 85:0.789 86:0.804 87:0.818 88:0.826 89:0.863 90:0.886 91:0.893 92:0.896 93:0.899 94:0.933 95:0.936 96:0.94 97:0.971 98:0.971 99:0.974 100:0.976 101:0.981 102:0.982 103:0.983 104:0.989 105:0.989 106:0.99 107:0.994 108:0.996 109:1.0 110:1.0 
-12.85507025375956 0:0.09 1:0.107 2:0.127 3:0.147 4:0.178 5:0.199 6:0.22 7:0.237 8:0.249 9:0.354 10:0.373 11:0.401 12:0.419 13:0.448 14:0.46 15:0.478 16:0.5 17:0.514 18:0.614 19:0.653 20:0.688 21:0.706 22:0.733 23:0.745 24:0.769 25:0.78 26:0.786 27:0.865 28:0.877 29:0.894 30:0.908 31:0.927 32:0.936 33:0.955 34:0.982 35:1.0 36:1.0 37:0.001 38:0.001 39:0.001 40:0.001 41:0.001 42:0.001 43:0.001 44:0.001 45:0.001 46:0.001 47:0.001 48:0.001 49:0.001 50:0.001 51:0.001 52:0.001 53:0.001 54:0.001 55:0.001 56:0.001 57:0.001 58:0.001 59:0.002 60:0.002 61:0.004 62:0.004 63:0.004 64:0.017 65:0.024 66:0.037 67:0.1 68:0.113 69:0.19 70:0.287 71:0.443 72:0.681 73:1.0 74:0.348 75:0.412 76:0.467 77:0.525 78:0.57 79:0.61 80:0.664 81:0.688 82:0.721 83:0.75 84:0.773 85:0.792 86:0.81 87:0.823 88:0.833 89:0.865 90:0.891 91:0.896 92:0.9 93:0.903 94:0.933 95:0.935 96:0.937 97:0.966 98:0.968 99:0.971 100:0.974 101:0.979 102:0.979 103:0.98 104:0.991 105:0.992 106:0.992 107:0.996 108:0.998 109:1.0 110:1.0 
-23.271194756114948 0:0.129 1:0.167 2:0.205 3:0.221 4:0.251 5:0.256 6:0.269 7:0.276 8:0.276 9:0.415 10:0.423 11:0.44 12:0.449 13:0.467 14:0.473 15:0.486 16:0.507 17:0.517 18:0.611 19:0.647 20:0.694 21:0.731 22:0.788 23:0.799 24:0.821 25:0.829 26:0.829 27:0.908 28:0.915 29:0.924 30:0.927 31:0.938 32:0.947 33:0.968 34:0.99 35:1.0 36:1.0 37:0.002 38:0.002 39:0.002 40:0.002 41:0.002 42:0.002 43:0.002 44:0.002 45:0.002 46:0.002 47:0.002 48:0.002 49:0.002 50:0.002 51:0.002 52:0.002 53:0.002 54:0.002 55:0.002 56:0.002 57:0.003 58:0.003 59:0.003 60:0.003 61:0.003 62:0.003 63:0.003 64:0.011 65:0.021 66:0.033 67:0.138 68:0.15 69:0.259 70:0.335 71:0.451 72:0.559 73:1.0 74:0.452 75:0.477 76:0.501 77:0.533 78:0.555 79:0.59 80:0.631 81:0.649 82:0.666 83:0.693 84:0.709 85:0.721 86:0.731 87:0.751 88:0.76 89:0.815 90:0.85 91:0.856 92:0.857 93:0.86 94:0.913 95:0.915 96:0.916 97:0.967 98:0.969 99:0.973 100:0.974 101:0.978 102:0.978 103:0.979 104:0.988 105:0.988 106:0.988 107:0.996 108:0.998 109:1.0 110:1.0 
-16.038142620578054 0:0.096 1:0.113 2:0.131 3:0.143 4:0.171 5:0.206 6:0.237 7:0.262 8:0.267 9:0.323 10:0.344 11:0.384 12:0.421 13:0.466 14:0.484 15:0.505 16:0.525 17:0.54 18:0.626 19:0.659 20:0.68 21:0.692 22:0.717 23:0.733 24:0.756 25:0.772 26:0.773 27:0.837 28:0.849 29:0.867 30:0.893 31:0.929 32:0.95 33:0.978 34:0.989 35:1.0 36:1.0 37:0.001 38:0.001 39:0.001 40:0.001 41:0.001 42:0.001 43:0.001 44:0.001 45:0.001 46:0.002 47:0.002 48:0.002 49:0.002 50:0.002 51:0.002 52:0.002 53:0.002 54:0.002 55:0.002 56:0.002 57:0.003 58:0.003 59:0.003 60:0.003 61:0.004 62:0.004 63:0.004 64:0.012 65:0.02 66:0.029 67:0.083 68:0.097 69:0.175 70:0.271 71:0.445 72:0.708 73:1.0 74:0.321 75:0.385 76:0.45 77:0.517 78:0.566 79:0.617 80:0.667 81:0.7 82:0.732 83:0.76 84:0.786 85:0.8 86:0.823 87:0.835 88:0.844 89:0.877 90:0.908 91:0.909 92:0.91 93:0.914 94:0.946 95:0.947 96:0.948 97:0.97 98:0.972 99:0.974 100:0.976 101:0.978 102:0.979 103:0.981 104:0.988 105:0.989 106:0.989 107:0.996 108:0.997 109:0.999 110:1.0 
-7.342246018654797 0:0.18 1:0.212 2:0.236 3:0.249 4:0.272 5:0.278 6:0.291 7:0.3 8:0.303 9:0.389 10:0.399 11:0.416 12:0.423 13:0.441 14:0.453 15:0.475 16:0.498 17:0.515 18:0.689 19:0.728 20:0.756 21:0.763 22:0.787 23:0.797 24:0.811 25:0.818 26:0.818 27:0.887 28:0.896 29:0.91 30:0.918 31:0.935 32:0.947 33:0.963 34:0.98 35:1.0 36:1.0 37:0.001 38:0.001 39:0.002 40:0.002 41:0.002 42:0.002 43:0.002 44:0.002 45:0.002 46:0.002 47:0.002 48:0.002 49:0.002 50:0.002 51:0.002 52:0.002 53:0.002 54:0.002 55:0.002 56:0.002 57:0.002 58:0.002 59:0.002 60:0.002 61:0.002 62:0.002 63:0.002 64:0.008 65:0.013 66:0.024 67:0.102 68:0.109 69:0.201 70:0.278 71:0.407 72:0.584 73:1.0 74:0.439 75:0.472 76:0.514 77:0.56 78:0.601 79:0.638 80:0.683 81:0.701 82:0.723 83:0.751 84:0.763 85:0.779 86:0.793 87:0.81 88:0.817 89:0.861 90:0.89 91:0.894 92:0.895 93:0.896 94:0.928 95:0.929 96:0.931 97:0.974 98:0.974 99:0.979 100:0.982 101:0.984 102:0.985 103:0.986 104:0.992 105:0.993 106:0.993 107:0.997 108:0.998 109:1.0 110:1.0 
-16.965253350181175 0:0.135 1:0.156 2:0.18 3:0.192 4:0.209 5:0.218 6:0.233 7:0.25 8:0.259 9:0.34 10:0.357 11:0.37 12:0.383 13:0.411 14:0.425 15:0.435 16:0.453 17:0.47 18:0.594 19:0.623 20:0.655 21:0.667 22:0.699 23:0.708 24:0.721 25:0.728 26:0.73 27:0.847 28:0.86 29:0.881 30:0.892 31:0.914 32:0.927 33:0.952 34:0.984 35:1.0 36:1.0 37:0.001 38:0.001 39:0.001 40:0.001 41:0.001 42:0.001 43:0.001 44:0.001 45:0.001 46:0.001 47:0.001 48:0.001 49:0.001 50:0.001 51:0.001 52:0.001 53:0.001 54:0.001 55:0.001 56:0.002 57:0.002 58:0.002 59:0.002 60:0.002 61:0.002 62:0.003 63:0.003 64:0.013 65:0.018 66:0.031 67:0.111 68:0.118 69:0.203 70:0.291 71:0.432 72:0.597 73:1.0 74:0.422 75:0.455 76:0.503 77:0.542 78:0.576 79:0.616 80:0.671 81:0.693 82:0.713 83:0.745 84:0.762 85:0.776 86:0.792 87:0.808 88:0.814 89:0.851 90:0.881 91:0.885 92:0.887 93:0.888 94:0.93 95:0.933 96:0.935 97:0.97 98:0.971 99:0.973 100:0.975 101:0.98 102:0.981 103:0.982 104:0.991 105:0.991 106:0.992 107:0.995 108:0.996 109:1.0 110:1.0 
-5.900710057039655 0:0.087 1:0.096 2:0.106 3:0.114 4:0.122 5:0.128 6:0.135 7:0.158 8:0.166 9:0.325 10:0.367 11:0.399 12:0.417 13:0.453 14:0.46 15:0.479 16:0.5 17:0.518 18:0.583 19:0.594 20:0.604 21:0.608 22:0.619 23:0.626 24:0.646 25:0.658 26:0.66 27:0.843 28:0.874 29:0.91 30:0.919 31:0.941 32:0.952 33:0.971 34:0.991 35:1.0 36:1.0 37:0.001 38:0.001 39:0.001 40:0.001 41:0.001 42:0.001 43:0.001 44:0.001 45:0.001 46:0.001 47:0.002 48:0.002 49:0.002 50:0.002 51:0.002 52:0.002 53:0.002 54:0.002 55:0.002 56:0.002 57:0.003 58:0.003 59:0.003 60:0.003 61:0.003 62:0.003 63:0.003 64:0.014 65:0.022 66:0.031 67:0.129 68:0.135 69:0.231 70:0.31 71:0.435 72:0.573 73:1.0 74:0.441 75:0.464 76:0.504 77:0.544 78:0.574 79:0.61 80:0.657 81:0.672 82:0.691 83:0.717 84:0.736 85:0.751 86:0.77 87:0.78 88:0.788 89:0.832 90:0.866 91:0.87 92:0.871 93:0.871 94:0.918 95:0.921 96:0.923 97:0.968 98:0.969 99:0.972 100:0.973 101:0.977 102:0.978 103:0.98 104:0.988 105:0.988 106:0.988 107:0.994 108:0.995 109:1.0 110:1.0 
-0.7395376818583211 0:0.135 1:0.186 2:0.219 3:0.246 4:0.273 5:0.285 6:0.292 7:0.303 8:0.305 9:0.364 10:0.375 11:0.382 12:0.391 13:0.402 14:0.41 15:0.422 16:0.441 17:0.456 18:0.572 19:0.61 20:0.645 21:0.672 22:0.697 23:0.716 24:0.734 25:0.745 26:0.745 27:0.835 28:0.849 29:0.864 30:0.88 31:0.912 32:0.93 33:0.953 34:0.979 35:1.0 36:1.0 37:0.001 38:0.001 39:0.001 40:0.001 41:0.001 42:0.001 43:0.001 44:0.001 45:0.001 46:0.001 47:0.001 48:0.001 49:0.001 50:0.001 51:0.001 52:0.001 53:0.001 54:0.001 55:0.001 56:0.002 57:0.002 58:0.002 59:0.002 60:0.002 61:0.002 62:0.003 63:0.003 64:0.012 65:0.016 66:0.026 67:0.071 68:0.087 69:0.157 70:0.252 71:0.432 72:0.671 73:1.0 74:0.358 75:0.416 76:0.474 77:0.532 78:0.578 79:0.625 80:0.686 81:0.717 82:0.749 83:0.778 84:0.802 85:0.82 86:0.836 87:0.851 88:0.86 89:0.888 90:0.915 91:0.92 92:0.921 93:0.927 94:0.952 95:0.952 96:0.955 97:0.978 98:0.981 99:0.982 100:0.983 101:0.985 102:0.985 103:0.987 104:0.994 105:0.994 106:0.994 107:0.996 108:0.996 109:1.0 110:1.0 
