svm_type c_svc
kernel_type rbf
gamma 2.0
nr_class 2
total_sv 26
rho -3.668397428092728
label 1 -1
nr_sv 15 11
SV
21.52167694326483 0:0.124 1:0.14 2:0.161 3:0.185 4:0.219 5:0.239 6:0.261 7:0.272 8:0.275 9:0.395 10:0.403 11:0.41 12:0.415 13:0.428 14:0.433 15:0.446 16:0.458 17:0.465 18:0.631 19:0.652 20:0.673 21:0.697 22:0.726 23:0.746 24:0.765 25:0.779 26:0.784 27:0.933 28:0.941 29:0.956 30:0.962 31:0.975 32:0.98 33:0.99 34:0.996 35:1.0 36:1.0 37:0.015 38:0.015 39:0.016 40:0.016 41:0.016 42:0.016 43:0.016 44:0.017 45:0.017 46:0.017 47:0.017 48:0.017 49:0.017 50:0.017 51:0.017 52:0.017 53:0.017 54:0.017 55:0.018 56:0.018 57:0.019 58:0.019 59:0.019 60:0.021 61:0.024 62:0.025 63:0.026 64:0.047 65:0.06 66:0.085 67:0.176 68:0.196 69:0.29 70:0.366 71:0.467 72:0.552 73:1.0 74:0.47 75:0.491 76:0.51 77:0.532 78:0.56 79:0.589 80:0.619 81:0.643 82:0.667 83:0.687 84:0.7 85:0.72 86:0.736 87:0.752 88:0.765 89:0.808 90:0.828 91:0.835 92:0.84 93:0.845 94:0.909 95:0.911 96:0.915 97:0.942 98:0.948 99:0.954 100:0.957 101:0.962 102:0.965 103:0.966 104:0.981 105:0.981 106:0.982 107:0.992 108:0.995 109:1.0 110:1.0 
16.3364927594957 0:0.146 1:0.165 2:0.19 3:0.221 4:0.251 5:0.265 6:0.275 7:0.282 8:0.287 9:0.38 10:0.385 11:0.395 12:0.399 13:0.411 14:0.418 15:0.43 16:0.443 17:0.453 18:0.617 19:0.632 20:0.659 21:0.674 22:0.697 23:0.71 24:0.722 25:0.734 26:0.738 27:0.903 28:0.913 29:0.933 30:0.939 31:0.965 32:0.975 33:0.991 34:0.998 35:1.0 36:1.0 37:0.02 38:0.02 39:0.02 40:0.021 41:0.021 42:0.021 43:0.021 44:0.021 45:0.022 46:0.023 47:0.023 48:0.023 49:0.023 50:0.023 51:0.023 52:0.023 53:0.023 54:0.023 55:0.024 56:0.024 57:0.025 58:0.025 59:0.025 60:0.026 61:0.03 62:0.031 63:0.033 64:0.053 65:0.071 66:0.095 67:0.179 68:0.201 69:0.282 70:0.347 71:0.442 72:0.539 73:1.0 74:0.491 75:0.511 76:0.535 77:0.563 78:0.589 79:0.62 80:0.644 81:0.666 82:0.687 83:0.704 84:0.72 85:0.738 86:0.751 87:0.762 88:0.772 89:0.809 90:0.828 91:0.836 92:0.841 93:0.846 94:0.902 95:0.906 96:0.908 97:0.941 98:0.946 99:0.951 100:0.952 101:0.957 102:0.961 103:0.964 104:0.975 105:0.976 106:0.978 107:0.989 108:0.992 109:0.999 110:1.0 
32.0 0:0.201 1:0.209 2:0.222 3:0.231 4:0.25 5:0.262 6:0.276 7:0.284 8:0.286 9:0.37 10:0.374 11:0.383 12:0.389 13:0.412 14:0.42 15:0.438 16:0.455 17:0.46 18:0.653 19:0.663 20:0.681 21:0.693 22:0.715 23:0.723 24:0.733 25:0.739 26:0.741 27:0.884 28:0.892 29:0.907 30:0.913 31:0.948 32:0.958 33:0.981 34:0.996 35:1.0 36:1.0 37:0.015 38:0.015 39:0.015 40:0.015 41:0.015 42:0.015 43:0.015 44:0.016 45:0.016 46:0.016 47:0.016 48:0.016 49:0.016 50:0.016 51:0.016 52:0.016 53:0.016 54:0.016 55:0.016 56:0.016 57:0.016 58:0.017 59:0.017 60:0.018 61:0.02 62:0.021 63:0.022 64:0.048 65:0.059 66:0.08 67:0.189 68:0.201 69:0.295 70:0.356 71:0.418 72:0.462 73:1.0 74:0.555 75:0.564 76:0.575 77:0.59 78:0.604 79:0.624 80:0.641 81:0.656 82:0.676 83:0.692 84:0.704 85:0.724 86:0.73 87:0.745 88:0.751 89:0.798 90:0.821 91:0.826 92:0.828 93:0.831 94:0.903 95:0.906 96:0.906 97:0.943 98:0.95 99:0.954 100:0.957 101:0.963 102:0.964 103:0.965 104:0.982 105:0.983 106:0.984 107:0.991 108:0.992 109:1.0 110:1.0 
29.243498504480154 0:0.18 1:0.212 2:0.236 3:0.249 4:0.272 5:0.278 6:0.291 7:0.3 8:0.303 9:0.389 10:0.399 11:0.416 12:0.423 13:0.441 14:0.453 15:0.475 16:0.498 17:0.515 18:0.689 19:0.728 20:0.756 21:0.763 22:0.787 23:0.797 24:0.811 25:0.818 26:0.818 27:0.887 28:0.896 29:0.91 30:0.918 31:0.935 32:0.947 33:0.963 34:0.98 35:1.0 36:1.0 37:0.001 38:0.001 39:0.002 40:0.002 41:0.002 42:0.002 43:0.002 44:0.002 45:0.002 46:0.002 47:0.002 48:0.002 49:0.002 50:0.002 51:0.002 52:0.002 53:0.002 54:0.002 55:0.002 56:0.002 57:0.002 58:0.002 59:0.002 60:0.002 61:0.002 62:0.002 63:0.002 64:0.008 65:0.013 66:0.024 67:0.102 68:0.109 69:0.201 70:0.278 71:0.407 72:0.584 73:1.0 74:0.439 75:0.472 76:0.514 77:0.56 78:0.601 79:0.638 80:0.683 81:0.701 82:0.723 83:0.751 84:0.763 85:0.779 86:0.793 87:0.81 88:0.817 89:0.861 90:0.89 91:0.894 92:0.895 93:0.896 94:0.928 95:0.929 96:0.931 97:0.974 98:0.974 99:0.979 100:0.982 101:0.984 102:0.985 103:0.986 104:0.992 105:0.993 106:0.993 107:0.997 108:0.998 109:1.0 110:1.0 
21.8662590302081 0:0.129 1:0.167 2:0.205 3:0.221 4:0.251 5:0.256 6:0.269 7:0.276 8:0.276 9:0.415 10:0.423 11:0.44 12:0.449 13:0.467 14:0.473 15:0.486 16:0.507 17:0.517 18:0.611 19:0.647 20:0.694 21:0.731 22:0.788 23:0.799 24:0.821 25:0.829 26:0.829 27:0.908 28:0.915 29:0.924 30:0.927 31:0.938 32:0.947 33:0.968 34:0.99 35:1.0 36:1.0 37:0.002 38:0.002 39:0.002 40:0.002 41:0.002 42:0.002 43:0.002 44:0.002 45:0.002 46:0.002 47:0.002 48:0.002 49:0.002 50:0.002 51:0.002 52:0.002 53:0.002 54:0.002 55:0.002 56:0.002 57:0.003 58:0.003 59:0.003 60:0.003 61:0.003 62:0.003 63:0.003 64:0.011 65:0.021 66:0.033 67:0.138 68:0.15 69:0.259 70:0.335 71:0.451 72:0.559 73:1.0 74:0.452 75:0.477 76:0.501 77:0.533 78:0.555 79:0.59 80:0.631 81:0.649 82:0.666 83:0.693 84:0.709 85:0.721 86:0.731 87:0.751 88:0.76 89:0.815 90:0.85 91:0.856 92:0.857 93:0.86 94:0.913 95:0.915 96:0.916 97:0.967 98:0.969 99:0.973 100:0.974 101:0.978 102:0.978 103:0.979 104:0.988 105:0.988 106:0.988 107:0.996 108:0.998 109:1.0 110:1.0 
3.954510910359676 0:0.12 1:0.134 2:0.149 3:0.159 4:0.178 5:0.191 6:0.203 7:0.214 8:0.22 9:0.33 10:0.346 11:0.364 12:0.376 13:0.401 14:0.416 15:0.437 16:0.447 17:0.45 18:0.57 19:0.577 20:0.597 21:0.611 22:0.636 23:0.648 24:0.663 25:0.678 26:0.683 27:0.846 28:0.86 29:0.886 30:0.905 31:0.939 32:0.949 33:0.973 34:0.992 35:1.0 36:1.0 37:0.02 38:0.02 39:0.021 40:0.021 41:0.021 42:0.022 43:0.023 44:0.023 45:0.023 46:0.023 47:0.023 48:0.023 49:0.023 50:0.023 51:0.023 52:0.023 53:0.023 54:0.023 55:0.023 56:0.023 57:0.023 58:0.024 59:0.025 60:0.026 61:0.028 62:0.03 63:0.032 64:0.062 65:0.082 66:0.113 67:0.212 68:0.23 69:0.332 70:0.407 71:0.508 72:0.592 73:1.0 74:0.437 75:0.459 76:0.476 77:0.496 78:0.52 79:0.55 80:0.585 81:0.608 82:0.63 83:0.651 84:0.67 85:0.692 86:0.704 87:0.714 88:0.72 89:0.77 90:0.795 91:0.804 92:0.809 93:0.813 94:0.886 95:0.89 96:0.891 97:0.923 98:0.928 99:0.934 100:0.938 101:0.947 102:0.949 103:0.952 104:0.97 105:0.972 106:0.974 107:0.985 108:0.987 109:1.0 110:1.0 
12.565969501967936 0:0.081 1:0.108 2:0.126 3:0.135 4:0.144 5:0.149 6:0.16 7:0.173 8:0.179 9:0.277 10:0.291 11:0.317 12:0.332 13:0.373 14:0.393 15:0.435 16:0.46 17:0.481 18:0.624 19:0.658 20:0.687 21:0.699 22:0.711 23:0.717 24:0.729 25:0.738 26:0.742 27:0.846 28:0.853 29:0.863 30:0.875 31:0.906 32:0.933 33:0.958 34:0.98 35:1.0 36:1.0 37:0.001 38:0.001 39:0.001 40:0.002 41:0.002 42:0.002 43:0.002 44:0.002 45:0.002 46:0.002 47:0.002 48:0.002 49:0.002 50:0.002 51:0.002 52:0.002 53:0.002 54:0.002 55:0.002 56:0.002 57:0.002 58:0.002 59:0.003 60:0.003 61:0.004 62:0.004 63:0.004 64:0.013 65:0.022 66:0.034 67:0.121 68:0.132 69:0.214 70:0.297 71:0.445 72:0.631 73:1.0 74:0.387 75:0.427 76:0.471 77:0.522 78:0.565 79:0.612 80:0.657 81:0.682 82:0.705 83:0.74 84:0.755 85:0.771 86:0.787 87:0.802 88:0.81 89:0.847 90:0.872 91:0.877 92:0.879 93:0.881 94:0.921 95:0.924 96:0.926 97:0.968 98:0.97 99:0.972 100:0.975 101:0.979 102:0.979 103:0.981 104:0.988 105:0.989 106:0.989 107:0.994 108:0.996 109:1.0 110:1.0 
25.77666862510435 0:0.141 1:0.157 2:0.172 3:0.183 4:0.204 5:0.218 6:0.235 7:0.245 8:0.251 9:0.362 10:0.369 11:0.382 12:0.392 13:0.403 14:0.411 15:0.423 16:0.432 17:0.439 18:0.583 19:0.599 20:0.618 21:0.637 22:0.67 23:0.683 24:0.697 25:0.703 26:0.704 27:0.862 28:0.869 29:0.891 30:0.905 31:0.948 32:0.959 33:0.98 34:0.995 35:1.0 36:1.0 37:0.022 38:0.022 39:0.022 40:0.022 41:0.022 42:0.022 43:0.022 44:0.022 45:0.022 46:0.023 47:0.023 48:0.023 49:0.023 50:0.023 51:0.023 52:0.023 53:0.023 54:0.023 55:0.023 56:0.023 57:0.024 58:0.025 59:0.025 60:0.026 61:0.027 62:0.029 63:0.029 64:0.052 65:0.071 66:0.093 67:0.198 68:0.215 69:0.304 70:0.377 71:0.465 72:0.55 73:1.0 74:0.477 75:0.5 76:0.522 77:0.543 78:0.562 79:0.592 80:0.617 81:0.639 82:0.662 83:0.683 84:0.695 85:0.716 86:0.726 87:0.744 88:0.752 89:0.794 90:0.813 91:0.819 92:0.824 93:0.829 94:0.896 95:0.901 96:0.902 97:0.934 98:0.939 99:0.949 100:0.954 101:0.957 102:0.958 103:0.96 104:0.977 105:0.979 106:0.981 107:0.99 108:0.992 109:1.0 110:1.0 
15.600042841322475 0:0.14 1:0.169 2:0.196 3:0.206 4:0.228 5:0.235 6:0.254 7:0.267 8:0.269 9:0.321 10:0.324 11:0.336 12:0.352 13:0.39 14:0.41 15:0.446 16:0.479 17:0.495 18:0.639 19:0.682 20:0.715 21:0.731 22:0.747 23:0.755 24:0.765 25:0.774 26:0.778 27:0.855 28:0.865 29:0.885 30:0.903 31:0.928 32:0.944 33:0.97 34:0.99 35:1.0 36:1.0 37:0.001 38:0.001 39:0.001 40:0.001 41:0.001 42:0.001 43:0.001 44:0.001 45:0.001 46:0.001 47:0.001 48:0.001 49:0.002 50:0.002 51:0.002 52:0.002 53:0.002 54:0.002 55:0.002 56:0.002 57:0.002 58:0.002 59:0.002 60:0.003 61:0.004 62:0.005 63:0.005 64:0.015 65:0.023 66:0.032 67:0.105 68:0.117 69:0.205 70:0.291 71:0.429 72:0.625 73:1.0 74:0.394 75:0.439 76:0.493 77:0.54 78:0.579 79:0.619 80:0.669 81:0.694 82:0.716 83:0.738 84:0.76 85:0.783 86:0.794 87:0.809 88:0.817 89:0.859 90:0.887 91:0.891 92:0.893 93:0.897 94:0.937 95:0.939 96:0.94 97:0.972 98:0.974 99:0.975 100:0.977 101:0.98 102:0.98 103:0.982 104:0.991 105:0.992 106:0.993 107:0.997 108:0.998 109:1.0 110:1.0 
4.718714336233124 0:0.128 1:0.148 2:0.179 3:0.208 4:0.248 5:0.267 6:0.29 7:0.304 8:0.309 9:0.409 10:0.412 11:0.421 12:0.426 13:0.445 14:0.459 15:0.475 16:0.489 17:0.501 18:0.6 19:0.611 20:0.631 21:0.657 22:0.684 23:0.7 24:0.716 25:0.73 26:0.734 27:0.872 28:0.886 29:0.907 30:0.922 31:0.949 32:0.96 33:0.983 34:0.994 35:1.0 36:1.0 37:0.008 38:0.008 39:0.008 40:0.008 41:0.009 42:0.009 43:0.009 44:0.009 45:0.009 46:0.009 47:0.009 48:0.009 49:0.01 50:0.01 51:0.01 52:0.011 53:0.011 54:0.011 55:0.011 56:0.011 57:0.011 58:0.012 59:0.012 60:0.014 61:0.019 62:0.021 63:0.023 64:0.045 65:0.058 66:0.082 67:0.163 68:0.186 69:0.274 70:0.366 71:0.487 72:0.613 73:1.0 74:0.406 75:0.432 76:0.466 77:0.501 78:0.534 79:0.569 80:0.603 81:0.629 82:0.657 83:0.683 84:0.705 85:0.728 86:0.744 87:0.76 88:0.772 89:0.81 90:0.831 91:0.839 92:0.844 93:0.85 94:0.9 95:0.904 96:0.908 97:0.933 98:0.938 99:0.944 100:0.949 101:0.956 102:0.958 103:0.961 104:0.975 105:0.977 106:0.98 107:0.99 108:0.993 109:0.999 110:1.0 
28.118878712348998 0:0.114 1:0.136 2:0.161 3:0.19 4:0.223 5:0.237 6:0.262 7:0.285 8:0.298 9:0.407 10:0.419 11:0.43 12:0.435 13:0.443 14:0.449 15:0.46 16:0.469 17:0.472 18:0.585 19:0.611 20:0.636 21:0.663 22:0.691 23:0.701 24:0.709 25:0.711 26:0.713 27:0.806 28:0.83 29:0.856 30:0.877 31:0.92 32:0.934 33:0.96 34:0.991 35:1.0 36:1.0 37:0.004 38:0.004 39:0.004 40:0.004 41:0.004 42:0.004 43:0.004 44:0.004 45:0.004 46:0.004 47:0.004 48:0.004 49:0.004 50:0.004 51:0.004 52:0.004 53:0.004 54:0.004 55:0.005 56:0.007 57:0.007 58:0.007 59:0.008 60:0.009 61:0.012 62:0.013 63:0.013 64:0.031 65:0.043 66:0.072 67:0.15 68:0.167 69:0.287 70:0.382 71:0.51 72:0.648 73:1.0 74:0.362 75:0.4 76:0.44 77:0.478 78:0.504 79:0.542 80:0.583 81:0.614 82:0.637 83:0.658 84:0.682 85:0.706 86:0.726 87:0.749 88:0.758 89:0.809 90:0.835 91:0.847 92:0.851 93:0.855 94:0.911 95:0.914 96:0.916 97:0.942 98:0.947 99:0.951 100:0.955 101:0.963 102:0.963 103:0.963 104:0.984 105:0.984 106:0.985 107:0.994 108:0.996 109:1.0 110:1.0 
0.14145355208890378 0:0.242 1:0.27 2:0.294 3:0.298 4:0.315 5:0.322 6:0.332 7:0.339 8:0.342 9:0.458 10:0.466 11:0.48 12:0.489 13:0.512 14:0.528 15:0.553 16:0.575 17:0.586 18:0.701 19:0.729 20:0.767 21:0.788 22:0.819 23:0.834 24:0.853 25:0.866 26:0.87 27:0.935 28:0.937 29:0.941 30:0.943 31:0.95 32:0.956 33:0.971 34:0.988 35:1.0 36:1.0 37:0.002 38:0.002 39:0.002 40:0.002 41:0.002 42:0.002 43:0.002 44:0.002 45:0.002 46:0.002 47:0.002 48:0.002 49:0.002 50:0.002 51:0.002 52:0.002 53:0.002 54:0.002 55:0.003 56:0.003 57:0.003 58:0.003 59:0.003 60:0.004 61:0.004 62:0.005 63:0.005 64:0.016 65:0.022 66:0.035 67:0.126 68:0.137 69:0.219 70:0.289 71:0.395 72:0.523 73:1.0 74:0.492 75:0.519 76:0.553 77:0.588 78:0.613 79:0.641 80:0.676 81:0.697 82:0.714 83:0.738 84:0.753 85:0.77 86:0.784 87:0.795 88:0.8 89:0.838 90:0.867 91:0.87 92:0.873 93:0.876 94:0.921 95:0.924 96:0.927 97:0.968 98:0.97 99:0.973 100:0.976 101:0.981 102:0.982 103:0.982 104:0.989 105:0.989 106:0.99 107:0.994 108:0.994 109:1.0 110:1.0 
2.0785623844766885 0:0.147 1:0.172 2:0.206 3:0.231 4:0.259 5:0.273 6:0.283 7:0.289 8:0.29 9:0.369 10:0.372 11:0.38 12:0.385 13:0.401 14:0.408 15:0.426 16:0.441 17:0.454 18:0.612 19:0.633 20:0.661 21:0.692 22:0.73 23:0.751 24:0.773 25:0.786 26:0.79 27:0.911 28:0.92 29:0.929 30:0.937 31:0.96 32:0.971 33:0.99 34:0.997 35:1.0 36:1.0 37:0.014 38:0.015 39:0.015 40:0.015 41:0.015 42:0.015 43:0.015 44:0.016 45:0.016 46:0.016 47:0.016 48:0.016 49:0.016 50:0.016 51:0.016 52:0.017 53:0.017 54:0.017 55:0.017 56:0.018 57:0.018 58:0.018 59:0.018 60:0.02 61:0.022 62:0.024 63:0.024 64:0.047 65:0.06 66:0.085 67:0.17 68:0.194 69:0.287 70:0.366 71:0.479 72:0.589 73:1.0 74:0.437 75:0.464 76:0.49 77:0.518 78:0.546 79:0.578 80:0.611 81:0.639 82:0.663 83:0.688 84:0.706 85:0.727 86:0.739 87:0.755 88:0.766 89:0.806 90:0.831 91:0.838 92:0.843 93:0.849 94:0.905 95:0.907 96:0.909 97:0.936 98:0.94 99:0.947 100:0.949 101:0.956 102:0.958 103:0.96 104:0.98 105:0.981 106:0.984 107:0.993 108:0.996 109:1.0 110:1.0 
0.6369965302275893 0:0.087 1:0.096 2:0.106 3:0.114 4:0.122 5:0.128 6:0.135 7:0.158 8:0.166 9:0.325 10:0.367 11:0.399 12:0.417 13:0.453 14:0.46 15:0.479 16:0.5 17:0.518 18:0.583 19:0.594 20:0.604 21:0.608 22:0.619 23:0.626 24:0.646 25:0.658 26:0.66 27:0.843 28:0.874 29:0.91 30:0.919 31:0.941 32:0.952 33:0.971 34:0.991 35:1.0 36:1.0 37:0.001 38:0.001 39:0.001 40:0.001 41:0.001 42:0.001 43:0.001 44:0.001 45:0.001 46:0.001 47:0.002 48:0.002 49:0.002 50:0.002 51:0.002 52:0.002 53:0.002 54:0.002 55:0.002 56:0.002 57:0.003 58:0.003 59:0.003 60:0.003 61:0.003 62:0.003 63:0.003 64:0.014 65:0.022 66:0.031 67:0.129 68:0.135 69:0.231 70:0.31 71:0.435 72:0.573 73:1.0 74:0.441 75:0.464 76:0.504 77:0.544 78:0.574 79:0.61 80:0.657 81:0.672 82:0.691 83:0.717 84:0.736 85:0.751 86:0.77 87:0.78 88:0.788 89:0.832 90:0.866 91:0.87 92:0.871 93:0.871 94:0.918 95:0.921 96:0.923 97:0.968 98:0.969 99:0.972 100:0.973 101:0.977 102:0.978 103:0.98 104:0.988 105:0.988 106:0.988 107:0.994 108:0.995 109:1.0 110:1.0 
32.0 0:0.117 1:0.135 2:0.154 3:0.158 4:0.175 5:0.18 6:0.195 7:0.207 8:0.21 9:0.329 10:0.338 11:0.355 12:0.364 13:0.399 14:0.418 15:0.448 16:0.476 17:0.498 18:0.607 19:0.634 20:0.659 21:0.673 22:0.702 23:0.709 24:0.726 25:0.731 26:0.731 27:0.85 28:0.863 29:0.882 30:0.89 31:0.917 32:0.935 33:0.961 34:0.983 35:1.0 36:1.0 37:0.001 38:0.001 39:0.001 40:0.001 41:0.001 42:0.001 43:0.002 44:0.002 45:0.002 46:0.002 47:0.002 48:0.002 49:0.002 50:0.002 51:0.002 52:0.002 53:0.002 54:0.002 55:0.002 56:0.002 57:0.002 58:0.002 59:0.003 60:0.003 61:0.004 62:0.004 63:0.004 64:0.015 65:0.022 66:0.032 67:0.109 68:0.118 69:0.212 70:0.281 71:0.415 72:0.554 73:1.0 74:0.465 75:0.502 76:0.537 77:0.567 78:0.594 79:0.636 80:0.68 81:0.702 82:0.726 83:0.746 84:0.761 85:0.774 86:0.789 87:0.803 88:0.811 89:0.852 90:0.882 91:0.888 92:0.89 93:0.893 94:0.934 95:0.936 96:0.937 97:0.968 98:0.97 99:0.973 100:0.977 101:0.978 102:0.979 103:0.98 104:0.989 105:0.989 106:0.989 107:0.994 108:0.996 109:1.0 110:1.0 
-14.385550256821901 0:0.187 1:0.209 2:0.225 3:0.24 4:0.255 5:0.267 6:0.28 7:0.289 8:0.293 9:0.377 10:0.385 11:0.398 12:0.409 13:0.43 14:0.45 15:0.477 16:0.499 17:0.514 18:0.71 19:0.734 20:0.751 21:0.763 22:0.779 23:0.793 24:0.809 25:0.821 26:0.825 27:0.899 28:0.906 29:0.918 30:0.93 31:0.948 32:0.96 33:0.982 34:0.994 35:1.0 36:1.0 37:0.01 38:0.01 39:0.01 40:0.01 41:0.01 42:0.01 43:0.01 44:0.01 45:0.01 46:0.01 47:0.01 48:0.01 49:0.01 50:0.011 51:0.011 52:0.011 53:0.011 54:0.011 55:0.011 56:0.011 57:0.012 58:0.012 59:0.012 60:0.013 61:0.015 62:0.016 63:0.016 64:0.029 65:0.038 66:0.054 67:0.112 68:0.126 69:0.203 70:0.279 71:0.387 72:0.532 73:1.0 74:0.489 75:0.524 76:0.562 77:0.597 78:0.629 79:0.661 80:0.697 81:0.719 82:0.743 83:0.763 84:0.78 85:0.797 86:0.808 87:0.823 88:0.831 89:0.868 90:0.885 91:0.891 92:0.895 93:0.897 94:0.938 95:0.94 96:0.941 97:0.959 98:0.962 99:0.967 100:0.97 101:0.972 102:0.973 103:0.975 104:0.985 105:0.986 106:0.987 107:0.994 108:0.996 109:1.0 110:1.0 
-12.212781987272232 0:0.124 1:0.152 2:0.175 3:0.19 4:0.214 5:0.229 6:0.247 7:0.263 8:0.269 9:0.409 10:0.423 11:0.441 12:0.45 13:0.467 14:0.474 15:0.486 16:0.496 17:0.501 18:0.646 19:0.667 20:0.693 21:0.72 22:0.748 23:0.762 24:0.779 25:0.788 26:0.791 27:0.922 28:0.931 29:0.941 30:0.948 31:0.963 32:0.971 33:0.984 34:0.995 35:1.0 36:1.0 37:0.01 38:0.01 39:0.01 40:0.01 41:0.01 42:0.011 43:0.011 44:0.011 45:0.011 46:0.011 47:0.011 48:0.011 49:0.011 50:0.011 51:0.011 52:0.011 53:0.011 54:0.011 55:0.012 56:0.013 57:0.013 58:0.013 59:0.013 60:0.014 61:0.016 62:0.017 63:0.017 64:0.028 65:0.04 66:0.059 67:0.137 68:0.151 69:0.233 70:0.309 71:0.413 72:0.533 73:1.0 74:0.486 75:0.517 76:0.548 77:0.579 78:0.605 79:0.634 80:0.669 81:0.69 82:0.713 83:0.732 84:0.747 85:0.768 86:0.781 87:0.796 88:0.802 89:0.842 90:0.863 91:0.868 92:0.872 93:0.877 94:0.93 95:0.931 96:0.934 97:0.957 98:0.959 99:0.963 100:0.966 101:0.973 102:0.974 103:0.975 104:0.984 105:0.986 106:0.988 107:0.994 108:0.995 109:1.0 110:1.0 
-25.283273609921192 0:0.179 1:0.206 2:0.237 3:0.252 4:0.275 5:0.281 6:0.291 7:0.297 8:0.301 9:0.406 10:0.419 11:0.432 12:0.437 13:0.452 14:0.458 15:0.473 16:0.479 17:0.483 18:0.653 19:0.668 20:0.697 21:0.713 22:0.73 23:0.737 24:0.747 25:0.752 26:0.757 27:0.879 28:0.892 29:0.905 30:0.914 31:0.942 32:0.955 33:0.98 34:0.996 35:1.0 36:1.0 37:0.006 38:0.006 39:0.007 40:0.007 41:0.007 42:0.007 43:0.007 44:0.007 45:0.007 46:0.007 47:0.007 48:0.007 49:0.007 50:0.007 51:0.007 52:0.007 53:0.007 54:0.007 55:0.007 56:0.007 57:0.007 58:0.007 59:0.007 60:0.008 61:0.011 62:0.012 63:0.012 64:0.029 65:0.046 66:0.068 67:0.178 68:0.186 69:0.292 70:0.357 71:0.435 72:0.509 73:1.0 74:0.503 75:0.52 76:0.54 77:0.557 78:0.578 79:0.602 80:0.626 81:0.641 82:0.658 83:0.677 84:0.693 85:0.713 86:0.722 87:0.736 88:0.742 89:0.796 90:0.822 91:0.826 92:0.828 93:0.831 94:0.9 95:0.904 96:0.907 97:0.945 98:0.95 99:0.954 100:0.957 101:0.962 102:0.962 103:0.963 104:0.978 105:0.978 106:0.979 107:0.992 108:0.994 109:1.0 110:1.0 
-20.131532165847712 0:0.192 1:0.218 2:0.241 3:0.257 4:0.272 5:0.282 6:0.294 7:0.302 8:0.305 9:0.385 10:0.398 11:0.413 12:0.428 13:0.45 14:0.465 15:0.478 16:0.5 17:0.512 18:0.664 19:0.686 20:0.713 21:0.73 22:0.755 23:0.762 24:0.775 25:0.779 26:0.781 27:0.867 28:0.878 29:0.894 30:0.908 31:0.935 32:0.95 33:0.976 34:0.991 35:1.0 36:1.0 37:0.008 38:0.008 39:0.008 40:0.008 41:0.008 42:0.008 43:0.008 44:0.008 45:0.008 46:0.008 47:0.008 48:0.008 49:0.008 50:0.009 51:0.009 52:0.009 53:0.009 54:0.009 55:0.009 56:0.009 57:0.009 58:0.009 59:0.009 60:0.01 61:0.011 62:0.013 63:0.013 64:0.029 65:0.041 66:0.059 67:0.131 68:0.148 69:0.244 70:0.322 71:0.443 72:0.576 73:1.0 74:0.442 75:0.471 76:0.509 77:0.545 78:0.574 79:0.605 80:0.642 81:0.668 82:0.697 83:0.718 84:0.733 85:0.752 86:0.769 87:0.784 88:0.795 89:0.839 90:0.862 91:0.869 92:0.873 93:0.878 94:0.923 95:0.927 96:0.928 97:0.955 98:0.96 99:0.963 100:0.965 101:0.968 102:0.969 103:0.97 104:0.983 105:0.984 106:0.985 107:0.993 108:0.994 109:1.0 110:1.0 
-32.0 0:0.134 1:0.153 2:0.17 3:0.186 4:0.202 5:0.209 6:0.223 7:0.235 8:0.24 9:0.346 10:0.356 11:0.372 12:0.386 13:0.41 14:0.423 15:0.446 16:0.46 17:0.471 18:0.628 19:0.657 20:0.687 21:0.704 22:0.728 23:0.74 24:0.754 25:0.764 26:0.766 27:0.869 28:0.884 29:0.898 30:0.915 31:0.934 32:0.948 33:0.973 34:0.989 35:1.0 36:1.0 37:0.006 38:0.006 39:0.006 40:0.006 41:0.006 42:0.006 43:0.006 44:0.006 45:0.006 46:0.006 47:0.006 48:0.006 49:0.006 50:0.006 51:0.006 52:0.006 53:0.006 54:0.006 55:0.007 56:0.008 57:0.008 58:0.008 59:0.008 60:0.009 61:0.013 62:0.014 63:0.014 64:0.027 65:0.037 66:0.055 67:0.119 68:0.133 69:0.211 70:0.292 71:0.413 72:0.565 73:1.0 74:0.454 75:0.493 76:0.533 77:0.571 78:0.599 79:0.635 80:0.675 81:0.699 82:0.725 83:0.744 84:0.763 85:0.782 86:0.795 87:0.814 88:0.821 89:0.853 90:0.875 91:0.881 92:0.885 93:0.888 94:0.934 95:0.937 96:0.938 97:0.958 98:0.96 99:0.966 100:0.968 101:0.973 102:0.974 103:0.976 104:0.984 105:0.985 106:0.987 107:0.994 108:0.995 109:1.0 110:1.0 
-15.847851639218124 0:0.129 1:0.145 2:0.164 3:0.174 4:0.184 5:0.193 6:0.212 7:0.229 8:0.234 9:0.31 10:0.323 11:0.338 12:0.349 13:0.38 14:0.386 15:0.411 16:0.429 17:0.435 18:0.584 19:0.605 20:0.628 21:0.653 22:0.678 23:0.699 24:0.713 25:0.724 26:0.726 27:0.816 28:0.826 29:0.844 30:0.865 31:0.912 32:0.942 33:0.973 34:0.992 35:1.0 36:1.0 37:0.008 38:0.008 39:0.008 40:0.008 41:0.008 42:0.008 43:0.008 44:0.008 45:0.008 46:0.008 47:0.008 48:0.008 49:0.008 50:0.008 51:0.008 52:0.008 53:0.008 54:0.008 55:0.008 56:0.008 57:0.008 58:0.009 59:0.009 60:0.01 61:0.012 62:0.013 63:0.013 64:0.035 65:0.056 66:0.086 67:0.181 68:0.198 69:0.302 70:0.389 71:0.5 72:0.612 73:1.0 74:0.402 75:0.428 76:0.459 77:0.491 78:0.515 79:0.545 80:0.584 81:0.613 82:0.634 83:0.657 84:0.673 85:0.689 86:0.702 87:0.726 88:0.737 89:0.785 90:0.814 91:0.823 92:0.826 93:0.828 94:0.897 95:0.9 96:0.903 97:0.933 98:0.94 99:0.946 100:0.952 101:0.959 102:0.96 103:0.961 104:0.976 105:0.976 106:0.978 107:0.99 108:0.993 109:1.0 110:1.0 
-25.707560247385423 0:0.085 1:0.1 2:0.125 3:0.15 4:0.171 5:0.187 6:0.206 7:0.217 8:0.22 9:0.327 10:0.336 11:0.355 12:0.369 13:0.399 14:0.416 15:0.437 16:0.454 17:0.461 18:0.645 19:0.663 20:0.689 21:0.707 22:0.734 23:0.754 24:0.773 25:0.785 26:0.794 27:0.891 28:0.904 29:0.92 30:0.935 31:0.957 32:0.967 33:0.983 34:0.992 35:1.0 36:1.0 37:0.007 38:0.007 39:0.007 40:0.007 41:0.008 42:0.008 43:0.008 44:0.008 45:0.008 46:0.008 47:0.008 48:0.008 49:0.008 50:0.008 51:0.008 52:0.008 53:0.008 54:0.008 55:0.009 56:0.009 57:0.009 58:0.009 59:0.009 60:0.011 61:0.014 62:0.015 63:0.015 64:0.031 65:0.044 66:0.065 67:0.138 68:0.152 69:0.243 70:0.321 71:0.44 72:0.577 73:1.0 74:0.441 75:0.471 76:0.508 77:0.544 78:0.575 79:0.61 80:0.648 81:0.675 82:0.7 83:0.721 84:0.735 85:0.758 86:0.77 87:0.787 88:0.794 89:0.837 90:0.858 91:0.866 92:0.869 93:0.873 94:0.924 95:0.926 96:0.928 97:0.952 98:0.957 99:0.961 100:0.964 101:0.967 102:0.968 103:0.97 104:0.982 105:0.982 106:0.985 107:0.993 108:0.994 109:1.0 110:1.0 
-32.0 0:0.163 1:0.178 2:0.199 3:0.215 4:0.234 5:0.247 6:0.259 7:0.264 8:0.265 9:0.352 10:0.358 11:0.37 12:0.376 13:0.391 14:0.399 15:0.416 16:0.426 17:0.431 18:0.613 19:0.627 20:0.632 21:0.637 22:0.652 23:0.652 24:0.659 25:0.663 26:0.663 27:0.813 28:0.833 29:0.859 30:0.878 31:0.913 32:0.941 33:0.976 34:0.997 35:1.0 36:1.0 37:0.013 38:0.013 39:0.014 40:0.014 41:0.014 42:0.014 43:0.014 44:0.014 45:0.014 46:0.014 47:0.014 48:0.014 49:0.014 50:0.014 51:0.015 52:0.015 53:0.015 54:0.015 55:0.015 56:0.015 57:0.015 58:0.015 59:0.015 60:0.016 61:0.02 62:0.021 63:0.021 64:0.037 65:0.057 66:0.085 67:0.179 68:0.192 69:0.294 70:0.358 71:0.434 72:0.5 73:1.0 74:0.516 75:0.531 76:0.548 77:0.568 78:0.586 79:0.608 80:0.636 81:0.648 82:0.662 83:0.681 84:0.696 85:0.718 86:0.727 87:0.744 88:0.75 89:0.805 90:0.828 91:0.831 92:0.833 93:0.835 94:0.908 95:0.911 96:0.912 97:0.941 98:0.941 99:0.946 100:0.948 101:0.957 102:0.957 103:0.958 104:0.974 105:0.976 106:0.977 107:0.99 108:0.995 109:1.0 110:1.0 
-18.089495562697998 0:0.162 1:0.194 2:0.223 3:0.239 4:0.258 5:0.271 6:0.285 7:0.292 8:0.295 9:0.391 10:0.399 11:0.413 12:0.418 13:0.443 14:0.454 15:0.478 16:0.493 17:0.5 18:0.658 19:0.689 20:0.718 21:0.74 22:0.768 23:0.778 24:0.789 25:0.794 26:0.796 27:0.885 28:0.899 29:0.918 30:0.924 31:0.954 32:0.963 33:0.986 34:0.998 35:1.0 36:1.0 37:0.01 38:0.01 39:0.01 40:0.01 41:0.01 42:0.01 43:0.01 44:0.01 45:0.01 46:0.01 47:0.01 48:0.01 49:0.01 50:0.01 51:0.01 52:0.01 53:0.01 54:0.01 55:0.01 56:0.01 57:0.01 58:0.011 59:0.011 60:0.011 61:0.013 62:0.013 63:0.013 64:0.037 65:0.053 66:0.079 67:0.189 68:0.2 69:0.319 70:0.39 71:0.493 72:0.586 73:1.0 74:0.428 75:0.448 76:0.478 77:0.5 78:0.521 79:0.549 80:0.585 81:0.611 82:0.633 83:0.652 84:0.665 85:0.693 86:0.706 87:0.721 88:0.728 89:0.786 90:0.814 91:0.82 92:0.821 93:0.825 94:0.901 95:0.903 96:0.905 97:0.943 98:0.948 99:0.951 100:0.953 101:0.958 102:0.958 103:0.961 104:0.98 105:0.98 106:0.981 107:0.99 108:0.991 109:1.0 110:1.0 
-18.90167916241393 0:0.102 1:0.127 2:0.152 3:0.169 4:0.186 5:0.203 6:0.215 7:0.225 8:0.229 9:0.37 10:0.384 11:0.4 12:0.414 13:0.433 14:0.447 15:0.466 16:0.481 17:0.487 18:0.626 19:0.637 20:0.651 21:0.668 22:0.699 23:0.725 24:0.754 25:0.769 26:0.777 27:0.913 28:0.921 29:0.935 30:0.945 31:0.962 32:0.973 33:0.99 34:0.995 35:1.0 36:1.0 37:0.006 38:0.006 39:0.006 40:0.006 41:0.006 42:0.006 43:0.007 44:0.007 45:0.007 46:0.007 47:0.007 48:0.007 49:0.007 50:0.007 51:0.007 52:0.007 53:0.007 54:0.007 55:0.009 56:0.009 57:0.009 58:0.009 59:0.01 60:0.011 61:0.014 62:0.015 63:0.015 64:0.03 65:0.04 66:0.061 67:0.134 68:0.147 69:0.229 70:0.302 71:0.408 72:0.541 73:1.0 74:0.475 75:0.508 76:0.545 77:0.577 78:0.605 79:0.633 80:0.669 81:0.691 82:0.719 83:0.74 84:0.754 85:0.774 86:0.784 87:0.797 88:0.805 89:0.845 90:0.862 91:0.871 92:0.874 93:0.878 94:0.924 95:0.926 96:0.928 97:0.953 98:0.958 99:0.962 100:0.965 101:0.97 102:0.971 103:0.972 104:0.982 105:0.983 106:0.984 107:0.991 108:0.994 109:1.0 110:1.0 
-32.0 0:0.13 1:0.152 2:0.174 3:0.188 4:0.212 5:0.227 6:0.24 7:0.249 8:0.251 9:0.352 10:0.37 11:0.39 12:0.406 13:0.435 14:0.452 15:0.476 16:0.492 17:0.497 18:0.602 19:0.622 20:0.644 21:0.663 22:0.689 23:0.704 24:0.717 25:0.724 26:0.726 27:0.83 28:0.844 29:0.868 30:0.886 31:0.918 32:0.941 33:0.969 34:0.991 35:1.0 36:1.0 37:0.006 38:0.006 39:0.006 40:0.006 41:0.006 42:0.006 43:0.006 44:0.006 45:0.006 46:0.006 47:0.006 48:0.006 49:0.006 50:0.006 51:0.006 52:0.006 53:0.006 54:0.006 55:0.007 56:0.007 57:0.007 58:0.007 59:0.007 60:0.008 61:0.011 62:0.012 63:0.013 64:0.031 65:0.044 66:0.071 67:0.154 68:0.176 69:0.274 70:0.366 71:0.499 72:0.625 73:1.0 74:0.393 75:0.421 76:0.452 77:0.486 78:0.515 79:0.549 80:0.593 81:0.626 82:0.653 83:0.68 84:0.7 85:0.725 86:0.737 87:0.755 88:0.765 89:0.815 90:0.836 91:0.843 92:0.847 93:0.851 94:0.914 95:0.918 96:0.92 97:0.945 98:0.951 99:0.957 100:0.96 101:0.967 102:0.968 103:0.97 104:0.98 105:0.981 106:0.982 107:0.991 108:0.993 109:1.0 110:1.0 
