svm_type c_svc
kernel_type rbf
gamma 0.5
nr_class 2
total_sv 24
rho -3.796143132220746
label 1 -1
nr_sv 11 13
SV
31.554552694053136 0:0.091 1:0.139 2:0.177 3:0.206 4:0.228 5:0.25 6:0.259 7:0.271 8:0.273 9:0.315 10:0.321 11:0.335 12:0.348 13:0.368 14:0.375 15:0.394 16:0.416 17:0.436 18:0.544 19:0.591 20:0.654 21:0.696 22:0.739 23:0.765 24:0.786 25:0.794 26:0.8 27:0.865 28:0.879 29:0.891 30:0.898 31:0.912 32:0.921 33:0.94 34:0.97 35:1.0 36:1.0 37:0.003 38:0.003 39:0.003 40:0.003 41:0.003 42:0.003 43:0.003 44:0.003 45:0.003 46:0.003 47:0.003 48:0.003 49:0.003 50:0.004 51:0.004 52:0.004 53:0.004 54:0.004 55:0.004 56:0.004 57:0.005 58:0.005 59:0.005 60:0.005 61:0.005 62:0.005 63:0.006 64:0.012 65:0.018 66:0.03 67:0.086 68:0.104 69:0.177 70:0.29 71:0.47 72:0.739 73:1.0 74:0.295 75:0.366 76:0.435 77:0.497 78:0.543 79:0.597 80:0.657 81:0.692 82:0.717 83:0.757 84:0.778 85:0.802 86:0.821 87:0.839 88:0.847 89:0.875 90:0.902 91:0.908 92:0.913 93:0.915 94:0.939 95:0.943 96:0.945 97:0.973 98:0.974 99:0.978 100:0.979 101:0.983 102:0.984 103:0.986 104:0.994 105:0.994 106:0.994 107:0.997 108:0.998 109:1.0 110:1.0 
27.83597128246748 0:0.13 1:0.152 2:0.174 3:0.188 4:0.212 5:0.227 6:0.24 7:0.249 8:0.251 9:0.352 10:0.37 11:0.39 12:0.406 13:0.435 14:0.452 15:0.476 16:0.492 17:0.497 18:0.602 19:0.622 20:0.644 21:0.663 22:0.689 23:0.704 24:0.717 25:0.724 26:0.726 27:0.83 28:0.844 29:0.868 30:0.886 31:0.918 32:0.941 33:0.969 34:0.991 35:1.0 36:1.0 37:0.006 38:0.006 39:0.006 40:0.006 41:0.006 42:0.006 43:0.006 44:0.006 45:0.006 46:0.006 47:0.006 48:0.006 49:0.006 50:0.006 51:0.006 52:0.006 53:0.006 54:0.006 55:0.007 56:0.007 57:0.007 58:0.007 59:0.007 60:0.008 61:0.011 62:0.012 63:0.013 64:0.031 65:0.044 66:0.071 67:0.154 68:0.176 69:0.274 70:0.366 71:0.499 72:0.625 73:1.0 74:0.393 75:0.421 76:0.452 77:0.486 78:0.515 79:0.549 80:0.593 81:0.626 82:0.653 83:0.68 84:0.7 85:0.725 86:0.737 87:0.755 88:0.765 89:0.815 90:0.836 91:0.843 92:0.847 93:0.851 94:0.914 95:0.918 96:0.92 97:0.945 98:0.951 99:0.957 100:0.96 101:0.967 102:0.968 103:0.97 104:0.98 105:0.981 106:0.982 107:0.991 108:0.993 109:1.0 110:1.0 
7.697358593741844 0:0.185 1:0.21 2:0.24 3:0.264 4:0.287 5:0.298 6:0.31 7:0.318 8:0.322 9:0.41 10:0.415 11:0.427 12:0.436 13:0.462 14:0.48 15:0.502 16:0.516 17:0.524 18:0.665 19:0.676 20:0.696 21:0.707 22:0.737 23:0.748 24:0.769 25:0.775 26:0.776 27:0.878 28:0.882 29:0.892 30:0.897 31:0.928 32:0.943 33:0.977 34:0.995 35:1.0 36:1.0 37:0.017 38:0.017 39:0.017 40:0.017 41:0.017 42:0.017 43:0.017 44:0.017 45:0.018 46:0.018 47:0.018 48:0.018 49:0.018 50:0.018 51:0.018 52:0.018 53:0.018 54:0.018 55:0.018 56:0.019 57:0.019 58:0.02 59:0.02 60:0.021 61:0.024 62:0.025 63:0.025 64:0.043 65:0.053 66:0.071 67:0.169 68:0.181 69:0.293 70:0.363 71:0.45 72:0.538 73:1.0 74:0.486 75:0.507 76:0.53 77:0.551 78:0.573 79:0.597 80:0.629 81:0.648 82:0.67 83:0.685 84:0.695 85:0.719 86:0.729 87:0.745 88:0.753 89:0.817 90:0.839 91:0.846 92:0.848 93:0.851 94:0.924 95:0.926 96:0.928 97:0.953 98:0.956 99:0.961 100:0.962 101:0.967 102:0.968 103:0.969 104:0.982 105:0.982 106:0.984 107:0.994 108:0.995 109:1.0 110:1.0 
8.653237850206784 0:0.063 1:0.071 2:0.081 3:0.098 4:0.117 5:0.13 6:0.148 7:0.191 8:0.206 9:0.246 10:0.26 11:0.271 12:0.281 13:0.308 14:0.321 15:0.335 16:0.347 17:0.353 18:0.439 19:0.458 20:0.476 21:0.505 22:0.557 23:0.593 24:0.636 25:0.676 26:0.7 27:0.838 28:0.876 29:0.899 30:0.918 31:0.953 32:0.962 33:0.977 34:0.993 35:1.0 36:1.0 37:0.003 38:0.003 39:0.004 40:0.004 41:0.005 42:0.005 43:0.005 44:0.005 45:0.005 46:0.006 47:0.006 48:0.006 49:0.008 50:0.008 51:0.008 52:0.008 53:0.008 54:0.008 55:0.008 56:0.009 57:0.01 58:0.01 59:0.01 60:0.01 61:0.011 62:0.012 63:0.012 64:0.02 65:0.024 66:0.036 67:0.079 68:0.09 69:0.165 70:0.272 71:0.423 72:0.665 73:1.0 74:0.359 75:0.417 76:0.492 77:0.551 78:0.592 79:0.638 80:0.693 81:0.724 82:0.742 83:0.771 84:0.802 85:0.818 86:0.842 87:0.856 88:0.866 89:0.897 90:0.919 91:0.926 92:0.927 93:0.931 94:0.957 95:0.96 96:0.962 97:0.978 98:0.98 99:0.981 100:0.981 101:0.985 102:0.985 103:0.987 104:0.992 105:0.992 106:0.993 107:0.995 108:0.996 109:1.0 110:1.0 
19.403292011269002 0:0.102 1:0.127 2:0.152 3:0.169 4:0.186 5:0.203 6:0.215 7:0.225 8:0.229 9:0.37 10:0.384 11:0.4 12:0.414 13:0.433 14:0.447 15:0.466 16:0.481 17:0.487 18:0.626 19:0.637 20:0.651 21:0.668 22:0.699 23:0.725 24:0.754 25:0.769 26:0.777 27:0.913 28:0.921 29:0.935 30:0.945 31:0.962 32:0.973 33:0.99 34:0.995 35:1.0 36:1.0 37:0.006 38:0.006 39:0.006 40:0.006 41:0.006 42:0.006 43:0.007 44:0.007 45:0.007 46:0.007 47:0.007 48:0.007 49:0.007 50:0.007 51:0.007 52:0.007 53:0.007 54:0.007 55:0.009 56:0.009 57:0.009 58:0.009 59:0.01 60:0.011 61:0.014 62:0.015 63:0.015 64:0.03 65:0.04 66:0.061 67:0.134 68:0.147 69:0.229 70:0.302 71:0.408 72:0.541 73:1.0 74:0.475 75:0.508 76:0.545 77:0.577 78:0.605 79:0.633 80:0.669 81:0.691 82:0.719 83:0.74 84:0.754 85:0.774 86:0.784 87:0.797 88:0.805 89:0.845 90:0.862 91:0.871 92:0.874 93:0.878 94:0.924 95:0.926 96:0.928 97:0.953 98:0.958 99:0.962 100:0.965 101:0.97 102:0.971 103:0.972 104:0.982 105:0.983 106:0.984 107:0.991 108:0.994 109:1.0 110:1.0 
32.0 0:0.163 1:0.178 2:0.199 3:0.215 4:0.234 5:0.247 6:0.259 7:0.264 8:0.265 9:0.352 10:0.358 11:0.37 12:0.376 13:0.391 14:0.399 15:0.416 16:0.426 17:0.431 18:0.613 19:0.627 20:0.632 21:0.637 22:0.652 23:0.652 24:0.659 25:0.663 26:0.663 27:0.813 28:0.833 29:0.859 30:0.878 31:0.913 32:0.941 33:0.976 34:0.997 35:1.0 36:1.0 37:0.013 38:0.013 39:0.014 40:0.014 41:0.014 42:0.014 43:0.014 44:0.014 45:0.014 46:0.014 47:0.014 48:0.014 49:0.014 50:0.014 51:0.015 52:0.015 53:0.015 54:0.015 55:0.015 56:0.015 57:0.015 58:0.015 59:0.015 60:0.016 61:0.02 62:0.021 63:0.021 64:0.037 65:0.057 66:0.085 67:0.179 68:0.192 69:0.294 70:0.358 71:0.434 72:0.5 73:1.0 74:0.516 75:0.531 76:0.548 77:0.568 78:0.586 79:0.608 80:0.636 81:0.648 82:0.662 83:0.681 84:0.696 85:0.718 86:0.727 87:0.744 88:0.75 89:0.805 90:0.828 91:0.831 92:0.833 93:0.835 94:0.908 95:0.911 96:0.912 97:0.941 98:0.941 99:0.946 100:0.948 101:0.957 102:0.957 103:0.958 104:0.974 105:0.976 106:0.977 107:0.99 108:0.995 109:1.0 110:1.0 
32.0 0:0.129 1:0.145 2:0.164 3:0.174 4:0.184 5:0.193 6:0.212 7:0.229 8:0.234 9:0.31 10:0.323 11:0.338 12:0.349 13:0.38 14:0.386 15:0.411 16:0.429 17:0.435 18:0.584 19:0.605 20:0.628 21:0.653 22:0.678 23:0.699 24:0.713 25:0.724 26:0.726 27:0.816 28:0.826 29:0.844 30:0.865 31:0.912 32:0.942 33:0.973 34:0.992 35:1.0 36:1.0 37:0.008 38:0.008 39:0.008 40:0.008 41:0.008 42:0.008 43:0.008 44:0.008 45:0.008 46:0.008 47:0.008 48:0.008 49:0.008 50:0.008 51:0.008 52:0.008 53:0.008 54:0.008 55:0.008 56:0.008 57:0.008 58:0.009 59:0.009 60:0.01 61:0.012 62:0.013 63:0.013 64:0.035 65:0.056 66:0.086 67:0.181 68:0.198 69:0.302 70:0.389 71:0.5 72:0.612 73:1.0 74:0.402 75:0.428 76:0.459 77:0.491 78:0.515 79:0.545 80:0.584 81:0.613 82:0.634 83:0.657 84:0.673 85:0.689 86:0.702 87:0.726 88:0.737 89:0.785 90:0.814 91:0.823 92:0.826 93:0.828 94:0.897 95:0.9 96:0.903 97:0.933 98:0.94 99:0.946 100:0.952 101:0.959 102:0.96 103:0.961 104:0.976 105:0.976 106:0.978 107:0.99 108:0.993 109:1.0 110:1.0 
3.2361520697340103 0:0.124 1:0.176 2:0.216 3:0.232 4:0.247 5:0.249 6:0.261 7:0.273 8:0.276 9:0.33 10:0.339 11:0.347 12:0.349 13:0.359 14:0.364 15:0.376 16:0.401 17:0.419 18:0.624 19:0.682 20:0.738 21:0.758 22:0.807 23:0.826 24:0.847 25:0.859 26:0.862 27:0.929 28:0.938 29:0.949 30:0.955 31:0.969 32:0.974 33:0.981 34:0.99 35:1.0 36:1.0 37:0.001 38:0.001 39:0.001 40:0.001 41:0.001 42:0.001 43:0.001 44:0.001 45:0.001 46:0.001 47:0.001 48:0.001 49:0.001 50:0.001 51:0.001 52:0.001 53:0.001 54:0.001 55:0.001 56:0.001 57:0.001 58:0.001 59:0.001 60:0.001 61:0.001 62:0.002 63:0.002 64:0.01 65:0.017 66:0.025 67:0.11 68:0.118 69:0.222 70:0.303 71:0.45 72:0.633 73:1.0 74:0.387 75:0.428 76:0.476 77:0.522 78:0.557 79:0.593 80:0.646 81:0.678 82:0.699 83:0.727 84:0.744 85:0.762 86:0.78 87:0.79 88:0.796 89:0.841 90:0.88 91:0.883 92:0.886 93:0.888 94:0.929 95:0.931 96:0.934 97:0.977 98:0.977 99:0.979 100:0.982 101:0.984 102:0.984 103:0.985 104:0.99 105:0.99 106:0.99 107:0.996 108:0.997 109:1.0 110:1.0 
32.0 0:0.162 1:0.194 2:0.223 3:0.239 4:0.258 5:0.271 6:0.285 7:0.292 8:0.295 9:0.391 10:0.399 11:0.413 12:0.418 13:0.443 14:0.454 15:0.478 16:0.493 17:0.5 18:0.658 19:0.689 20:0.718 21:0.74 22:0.768 23:0.778 24:0.789 25:0.794 26:0.796 27:0.885 28:0.899 29:0.918 30:0.924 31:0.954 32:0.963 33:0.986 34:0.998 35:1.0 36:1.0 37:0.01 38:0.01 39:0.01 40:0.01 41:0.01 42:0.01 43:0.01 44:0.01 45:0.01 46:0.01 47:0.01 48:0.01 49:0.01 50:0.01 51:0.01 52:0.01 53:0.01 54:0.01 55:0.01 56:0.01 57:0.01 58:0.011 59:0.011 60:0.011 61:0.013 62:0.013 63:0.013 64:0.037 65:0.053 66:0.079 67:0.189 68:0.2 69:0.319 70:0.39 71:0.493 72:0.586 73:1.0 74:0.428 75:0.448 76:0.478 77:0.5 78:0.521 79:0.549 80:0.585 81:0.611 82:0.633 83:0.652 84:0.665 85:0.693 86:0.706 87:0.721 88:0.728 89:0.786 90:0.814 91:0.82 92:0.821 93:0.825 94:0.901 95:0.903 96:0.905 97:0.943 98:0.948 99:0.951 100:0.953 101:0.958 102:0.958 103:0.961 104:0.98 105:0.98 106:0.981 107:0.99 108:0.991 109:1.0 110:1.0 
28.621084263892794 0:0.179 1:0.206 2:0.237 3:0.252 4:0.275 5:0.281 6:0.291 7:0.297 8:0.301 9:0.406 10:0.419 11:0.432 12:0.437 13:0.452 14:0.458 15:0.473 16:0.479 17:0.483 18:0.653 19:0.668 20:0.697 21:0.713 22:0.73 23:0.737 24:0.747 25:0.752 26:0.757 27:0.879 28:0.892 29:0.905 30:0.914 31:0.942 32:0.955 33:0.98 34:0.996 35:1.0 36:1.0 37:0.006 38:0.006 39:0.007 40:0.007 41:0.007 42:0.007 43:0.007 44:0.007 45:0.007 46:0.007 47:0.007 48:0.007 49:0.007 50:0.007 51:0.007 52:0.007 53:0.007 54:0.007 55:0.007 56:0.007 57:0.007 58:0.007 59:0.007 60:0.008 61:0.011 62:0.012 63:0.012 64:0.029 65:0.046 66:0.068 67:0.178 68:0.186 69:0.292 70:0.357 71:0.435 72:0.509 73:1.0 74:0.503 75:0.52 76:0.54 77:0.557 78:0.578 79:0.602 80:0.626 81:0.641 82:0.658 83:0.677 84:0.693 85:0.713 86:0.722 87:0.736 88:0.742 89:0.796 90:0.822 91:0.826 92:0.828 93:0.831 94:0.9 95:0.904 96:0.907 97:0.945 98:0.95 99:0.954 100:0.957 101:0.962 102:0.962 103:0.963 104:0.978 105:0.978 106:0.979 107:0.992 108:0.994 109:1.0 110:1.0 
28.235351937856006 0:0.085 1:0.133 2:0.18 3:0.206 4:0.265 5:0.274 6:0.303 7:0.317 8:0.318 9:0.446 10:0.455 11:0.467 12:0.471 13:0.485 14:0.489 15:0.505 16:0.516 17:0.521 18:0.638 19:0.682 20:0.713 21:0.739 22:0.8 23:0.822 24:0.846 25:0.869 26:0.871 27:0.928 28:0.933 29:0.941 30:0.942 31:0.951 32:0.958 33:0.977 34:0.993 35:1.0 36:1.0 37:0.001 38:0.001 39:0.001 40:0.001 41:0.001 42:0.001 43:0.001 44:0.001 45:0.001 46:0.001 47:0.001 48:0.001 49:0.001 50:0.001 51:0.001 52:0.001 53:0.001 54:0.001 55:0.002 56:0.002 57:0.002 58:0.002 59:0.002 60:0.002 61:0.002 62:0.003 63:0.003 64:0.015 65:0.029 66:0.042 67:0.151 68:0.167 69:0.291 70:0.378 71:0.511 72:0.638 73:1.0 74:0.371 75:0.397 76:0.431 77:0.47 78:0.492 79:0.532 80:0.582 81:0.606 82:0.625 83:0.651 84:0.672 85:0.69 86:0.708 87:0.723 88:0.732 89:0.799 90:0.834 91:0.839 92:0.84 93:0.847 94:0.9 95:0.902 96:0.905 97:0.96 98:0.96 99:0.965 100:0.965 101:0.969 102:0.97 103:0.972 104:0.981 105:0.981 106:0.982 107:0.993 108:0.996 109:1.0 110:1.0 
-13.83812209364871 0:0.104 1:0.131 2:0.169 3:0.197 4:0.226 5:0.242 6:0.258 7:0.271 8:0.274 9:0.355 10:0.363 11:0.371 12:0.382 13:0.399 14:0.412 15:0.432 16:0.453 17:0.465 18:0.555 19:0.574 20:0.603 21:0.627 22:0.654 23:0.68 24:0.695 25:0.712 26:0.714 27:0.872 28:0.885 29:0.901 30:0.911 31:0.932 32:0.946 33:0.967 34:0.989 35:1.0 36:1.0 37:0.007 38:0.007 39:0.007 40:0.007 41:0.007 42:0.007 43:0.007 44:0.007 45:0.008 46:0.008 47:0.008 48:0.008 49:0.008 50:0.008 51:0.008 52:0.008 53:0.008 54:0.008 55:0.009 56:0.009 57:0.01 58:0.01 59:0.01 60:0.012 61:0.015 62:0.016 63:0.017 64:0.035 65:0.049 66:0.075 67:0.145 68:0.167 69:0.258 70:0.34 71:0.465 72:0.628 73:1.0 74:0.395 75:0.435 76:0.477 77:0.52 78:0.555 79:0.591 80:0.629 81:0.659 82:0.684 83:0.707 84:0.727 85:0.75 86:0.762 87:0.783 88:0.791 89:0.831 90:0.85 91:0.859 92:0.863 93:0.868 94:0.917 95:0.921 96:0.924 97:0.947 98:0.952 99:0.956 100:0.96 101:0.966 102:0.967 103:0.969 104:0.981 105:0.982 106:0.984 107:0.991 108:0.994 109:1.0 110:1.0 
-12.82398468999641 0:0.079 1:0.094 2:0.12 3:0.137 4:0.165 5:0.183 6:0.195 7:0.211 8:0.215 9:0.273 10:0.281 11:0.288 12:0.293 13:0.307 14:0.312 15:0.327 16:0.34 17:0.346 18:0.493 19:0.533 20:0.589 21:0.642 22:0.687 23:0.716 24:0.744 25:0.761 26:0.768 27:0.897 28:0.907 29:0.921 30:0.931 31:0.951 32:0.965 33:0.983 34:0.994 35:1.0 36:1.0 37:0.003 38:0.003 39:0.003 40:0.003 41:0.003 42:0.003 43:0.003 44:0.003 45:0.003 46:0.003 47:0.003 48:0.003 49:0.003 50:0.003 51:0.003 52:0.003 53:0.003 54:0.003 55:0.004 56:0.004 57:0.005 58:0.005 59:0.006 60:0.006 61:0.009 62:0.01 63:0.011 64:0.028 65:0.043 66:0.063 67:0.133 68:0.15 69:0.247 70:0.343 71:0.481 72:0.655 73:1.0 74:0.367 75:0.414 76:0.449 77:0.497 78:0.536 79:0.572 80:0.609 81:0.645 82:0.674 83:0.706 84:0.729 85:0.752 86:0.768 87:0.785 88:0.795 89:0.835 90:0.859 91:0.865 92:0.868 93:0.872 94:0.923 95:0.927 96:0.93 97:0.949 98:0.955 99:0.961 100:0.963 101:0.968 102:0.969 103:0.972 104:0.982 105:0.984 106:0.987 107:0.993 108:0.995 109:0.999 110:1.0 
-32.0 0:0.195 1:0.221 2:0.256 3:0.289 4:0.314 5:0.327 6:0.34 7:0.348 8:0.351 9:0.413 10:0.419 11:0.426 12:0.431 13:0.445 14:0.454 15:0.468 16:0.485 17:0.494 18:0.612 19:0.636 20:0.671 21:0.706 22:0.742 23:0.762 24:0.782 25:0.793 26:0.799 27:0.898 28:0.906 29:0.916 30:0.921 31:0.942 32:0.951 33:0.974 34:0.993 35:1.0 36:1.0 37:0.005 38:0.005 39:0.005 40:0.005 41:0.005 42:0.005 43:0.005 44:0.005 45:0.006 46:0.006 47:0.006 48:0.006 49:0.006 50:0.006 51:0.006 52:0.006 53:0.006 54:0.006 55:0.006 56:0.007 57:0.007 58:0.007 59:0.007 60:0.008 61:0.01 62:0.012 63:0.013 64:0.03 65:0.041 66:0.062 67:0.148 68:0.164 69:0.263 70:0.341 71:0.46 72:0.597 73:1.0 74:0.418 75:0.454 76:0.489 77:0.524 78:0.557 79:0.59 80:0.63 81:0.653 82:0.678 83:0.699 84:0.715 85:0.743 86:0.754 87:0.771 88:0.78 89:0.825 90:0.847 91:0.855 92:0.858 93:0.861 94:0.92 95:0.923 96:0.925 97:0.953 98:0.958 99:0.963 100:0.966 101:0.971 102:0.972 103:0.974 104:0.986 105:0.986 106:0.988 107:0.994 108:0.995 109:1.0 110:1.0 
-32.0 0:0.189 1:0.212 2:0.243 3:0.272 4:0.296 5:0.303 6:0.313 7:0.318 8:0.32 9:0.377 10:0.38 11:0.385 12:0.389 13:0.403 14:0.411 15:0.425 16:0.438 17:0.461 18:0.592 19:0.619 20:0.654 21:0.682 22:0.706 23:0.722 24:0.735 25:0.75 26:0.754 27:0.855 28:0.867 29:0.88 30:0.887 31:0.906 32:0.918 33:0.947 34:0.983 35:1.0 36:1.0 37:0.005 38:0.005 39:0.005 40:0.005 41:0.005 42:0.005 43:0.006 44:0.006 45:0.006 46:0.006 47:0.006 48:0.006 49:0.006 50:0.007 51:0.007 52:0.007 53:0.007 54:0.007 55:0.007 56:0.008 57:0.008 58:0.008 59:0.009 60:0.01 61:0.012 62:0.014 63:0.014 64:0.029 65:0.042 66:0.065 67:0.144 68:0.161 69:0.246 70:0.335 71:0.456 72:0.609 73:1.0 74:0.41 75:0.45 76:0.485 77:0.528 78:0.561 79:0.595 80:0.639 81:0.664 82:0.683 83:0.71 84:0.727 85:0.748 86:0.762 87:0.786 88:0.794 89:0.836 90:0.852 91:0.861 92:0.865 93:0.869 94:0.925 95:0.928 96:0.93 97:0.954 98:0.957 99:0.961 100:0.965 101:0.97 102:0.971 103:0.972 104:0.983 105:0.984 106:0.986 107:0.993 108:0.994 109:1.0 110:1.0 
-28.50690162589176 0:0.124 1:0.14 2:0.161 3:0.185 4:0.219 5:0.239 6:0.261 7:0.272 8:0.275 9:0.395 10:0.403 11:0.41 12:0.415 13:0.428 14:0.433 15:0.446 16:0.458 17:0.465 18:0.631 19:0.652 20:0.673 21:0.697 22:0.726 23:0.746 24:0.765 25:0.779 26:0.784 27:0.933 28:0.941 29:0.956 30:0.962 31:0.975 32:0.98 33:0.99 34:0.996 35:1.0 36:1.0 37:0.015 38:0.015 39:0.016 40:0.016 41:0.016 42:0.016 43:0.016 44:0.017 45:0.017 46:0.017 47:0.017 48:0.017 49:0.017 50:0.017 51:0.017 52:0.017 53:0.017 54:0.017 55:0.018 56:0.018 57:0.019 58:0.019 59:0.019 60:0.021 61:0.024 62:0.025 63:0.026 64:0.047 65:0.06 66:0.085 67:0.176 68:0.196 69:0.29 70:0.366 71:0.467 72:0.552 73:1.0 74:0.47 75:0.491 76:0.51 77:0.532 78:0.56 79:0.589 80:0.619 81:0.643 82:0.667 83:0.687 84:0.7 85:0.72 86:0.736 87:0.752 88:0.765 89:0.808 90:0.828 91:0.835 92:0.84 93:0.845 94:0.909 95:0.911 96:0.915 97:0.942 98:0.948 99:0.954 100:0.957 101:0.962 102:0.965 103:0.966 104:0.981 105:0.981 106:0.982 107:0.992 108:0.995 109:1.0 110:1.0 
-9.27733001848901 0:0.102 1:0.11 2:0.123 3:0.138 4:0.164 5:0.186 6:0.212 7:0.232 8:0.24 9:0.415 10:0.424 11:0.433 12:0.437 13:0.451 14:0.458 15:0.472 16:0.479 17:0.481 18:0.576 19:0.591 20:0.601 21:0.61 22:0.634 23:0.646 24:0.654 25:0.662 26:0.668 27:0.894 28:0.903 29:0.931 30:0.939 31:0.971 32:0.978 33:0.993 34:1.0 35:1.0 36:1.0 37:0.025 38:0.025 39:0.025 40:0.025 41:0.025 42:0.025 43:0.025 44:0.026 45:0.026 46:0.026 47:0.027 48:0.027 49:0.027 50:0.027 51:0.027 52:0.027 53:0.027 54:0.027 55:0.028 56:0.028 57:0.028 58:0.028 59:0.029 60:0.029 61:0.033 62:0.034 63:0.034 64:0.054 65:0.07 66:0.085 67:0.177 68:0.189 69:0.281 70:0.348 71:0.433 72:0.503 73:1.0 74:0.527 75:0.544 76:0.559 77:0.58 78:0.601 79:0.623 80:0.649 81:0.664 82:0.689 83:0.708 84:0.724 85:0.75 86:0.759 87:0.774 88:0.782 89:0.828 90:0.842 91:0.845 92:0.847 93:0.852 94:0.917 95:0.92 96:0.921 97:0.948 98:0.953 99:0.956 100:0.957 101:0.963 102:0.963 103:0.966 104:0.977 105:0.978 106:0.98 107:0.991 108:0.993 109:1.0 110:1.0 
-0.8210041879536996 0:0.078 1:0.082 2:0.09 3:0.096 4:0.099 5:0.101 6:0.11 7:0.111 8:0.115 9:0.172 10:0.174 11:0.175 12:0.175 13:0.18 14:0.18 15:0.184 16:0.188 17:0.195 18:0.341 19:0.38 20:0.423 21:0.482 22:0.561 23:0.615 24:0.661 25:0.686 26:0.693 27:0.888 28:0.9 29:0.918 30:0.929 31:0.954 32:0.972 33:0.988 34:0.997 35:1.0 36:1.0 37:0.007 38:0.008 39:0.008 40:0.008 41:0.008 42:0.008 43:0.008 44:0.008 45:0.008 46:0.008 47:0.008 48:0.008 49:0.008 50:0.008 51:0.008 52:0.008 53:0.008 54:0.008 55:0.009 56:0.009 57:0.01 58:0.01 59:0.011 60:0.011 61:0.016 62:0.018 63:0.018 64:0.041 65:0.052 66:0.075 67:0.154 68:0.176 69:0.258 70:0.367 71:0.485 72:0.606 73:1.0 74:0.409 75:0.44 76:0.475 77:0.501 78:0.534 79:0.566 80:0.597 81:0.625 82:0.658 83:0.691 84:0.714 85:0.736 86:0.754 87:0.769 88:0.784 89:0.811 90:0.837 91:0.843 92:0.846 93:0.85 94:0.905 95:0.91 96:0.914 97:0.939 98:0.942 99:0.95 100:0.952 101:0.961 102:0.962 103:0.962 104:0.978 105:0.979 106:0.981 107:0.989 108:0.992 109:0.999 110:1.0 
-32.0 0:0.114 1:0.136 2:0.161 3:0.19 4:0.223 5:0.237 6:0.262 7:0.285 8:0.298 9:0.407 10:0.419 11:0.43 12:0.435 13:0.443 14:0.449 15:0.46 16:0.469 17:0.472 18:0.585 19:0.611 20:0.636 21:0.663 22:0.691 23:0.701 24:0.709 25:0.711 26:0.713 27:0.806 28:0.83 29:0.856 30:0.877 31:0.92 32:0.934 33:0.96 34:0.991 35:1.0 36:1.0 37:0.004 38:0.004 39:0.004 40:0.004 41:0.004 42:0.004 43:0.004 44:0.004 45:0.004 46:0.004 47:0.004 48:0.004 49:0.004 50:0.004 51:0.004 52:0.004 53:0.004 54:0.004 55:0.005 56:0.007 57:0.007 58:0.007 59:0.008 60:0.009 61:0.012 62:0.013 63:0.013 64:0.031 65:0.043 66:0.072 67:0.15 68:0.167 69:0.287 70:0.382 71:0.51 72:0.648 73:1.0 74:0.362 75:0.4 76:0.44 77:0.478 78:0.504 79:0.542 80:0.583 81:0.614 82:0.637 83:0.658 84:0.682 85:0.706 86:0.726 87:0.749 88:0.758 89:0.809 90:0.835 91:0.847 92:0.851 93:0.855 94:0.911 95:0.914 96:0.916 97:0.942 98:0.947 99:0.951 100:0.955 101:0.963 102:0.963 103:0.963 104:0.984 105:0.984 106:0.985 107:0.994 108:0.996 109:1.0 110:1.0 
-32.0 0:0.141 1:0.157 2:0.172 3:0.183 4:0.204 5:0.218 6:0.235 7:0.245 8:0.251 9:0.362 10:0.369 11:0.382 12:0.392 13:0.403 14:0.411 15:0.423 16:0.432 17:0.439 18:0.583 19:0.599 20:0.618 21:0.637 22:0.67 23:0.683 24:0.697 25:0.703 26:0.704 27:0.862 28:0.869 29:0.891 30:0.905 31:0.948 32:0.959 33:0.98 34:0.995 35:1.0 36:1.0 37:0.022 38:0.022 39:0.022 40:0.022 41:0.022 42:0.022 43:0.022 44:0.022 45:0.022 46:0.023 47:0.023 48:0.023 49:0.023 50:0.023 51:0.023 52:0.023 53:0.023 54:0.023 55:0.023 56:0.023 57:0.024 58:0.025 59:0.025 60:0.026 61:0.027 62:0.029 63:0.029 64:0.052 65:0.071 66:0.093 67:0.198 68:0.215 69:0.304 70:0.377 71:0.465 72:0.55 73:1.0 74:0.477 75:0.5 76:0.522 77:0.543 78:0.562 79:0.592 80:0.617 81:0.639 82:0.662 83:0.683 84:0.695 85:0.716 86:0.726 87:0.744 88:0.752 89:0.794 90:0.813 91:0.819 92:0.824 93:0.829 94:0.896 95:0.901 96:0.902 97:0.934 98:0.939 99:0.949 100:0.954 101:0.957 102:0.958 103:0.96 104:0.977 105:0.979 106:0.981 107:0.99 108:0.992 109:1.0 110:1.0 
-32.0 0:0.096 1:0.127 2:0.165 3:0.216 4:0.254 5:0.273 6:0.292 7:0.299 8:0.303 9:0.386 10:0.389 11:0.393 12:0.397 13:0.409 14:0.424 15:0.438 16:0.457 17:0.47 18:0.634 19:0.659 20:0.7 21:0.744 22:0.801 23:0.838 24:0.861 25:0.875 26:0.878 27:0.948 28:0.957 29:0.96 30:0.967 31:0.974 32:0.981 33:0.988 34:0.992 35:1.0 36:1.0 37:0.007 38:0.007 39:0.007 40:0.007 41:0.008 42:0.008 43:0.008 44:0.008 45:0.008 46:0.008 47:0.008 48:0.008 49:0.008 50:0.008 51:0.008 52:0.008 53:0.008 54:0.008 55:0.009 56:0.009 57:0.01 58:0.01 59:0.011 60:0.012 61:0.014 62:0.015 63:0.016 64:0.033 65:0.051 66:0.077 67:0.154 68:0.182 69:0.263 70:0.366 71:0.508 72:0.655 73:1.0 74:0.365 75:0.395 76:0.432 77:0.472 78:0.511 79:0.557 80:0.599 81:0.625 82:0.652 83:0.676 84:0.703 85:0.733 86:0.751 87:0.77 88:0.784 89:0.817 90:0.834 91:0.843 92:0.851 93:0.857 94:0.905 95:0.909 96:0.913 97:0.935 98:0.937 99:0.943 100:0.948 101:0.955 102:0.958 103:0.959 104:0.976 105:0.978 106:0.981 107:0.989 108:0.994 109:1.0 110:1.0 
-14.475867319972277 0:0.12 1:0.134 2:0.149 3:0.159 4:0.178 5:0.191 6:0.203 7:0.214 8:0.22 9:0.33 10:0.346 11:0.364 12:0.376 13:0.401 14:0.416 15:0.437 16:0.447 17:0.45 18:0.57 19:0.577 20:0.597 21:0.611 22:0.636 23:0.648 24:0.663 25:0.678 26:0.683 27:0.846 28:0.86 29:0.886 30:0.905 31:0.939 32:0.949 33:0.973 34:0.992 35:1.0 36:1.0 37:0.02 38:0.02 39:0.021 40:0.021 41:0.021 42:0.022 43:0.023 44:0.023 45:0.023 46:0.023 47:0.023 48:0.023 49:0.023 50:0.023 51:0.023 52:0.023 53:0.023 54:0.023 55:0.023 56:0.023 57:0.023 58:0.024 59:0.025 60:0.026 61:0.028 62:0.03 63:0.032 64:0.062 65:0.082 66:0.113 67:0.212 68:0.23 69:0.332 70:0.407 71:0.508 72:0.592 73:1.0 74:0.437 75:0.459 76:0.476 77:0.496 78:0.52 79:0.55 80:0.585 81:0.608 82:0.63 83:0.651 84:0.67 85:0.692 86:0.704 87:0.714 88:0.72 89:0.77 90:0.795 91:0.804 92:0.809 93:0.813 94:0.886 95:0.89 96:0.891 97:0.923 98:0.928 99:0.934 100:0.938 101:0.947 102:0.949 103:0.952 104:0.97 105:0.972 106:0.974 107:0.985 108:0.987 109:1.0 110:1.0 
-3.0694361835177544 0:0.111 1:0.137 2:0.169 3:0.195 4:0.219 5:0.234 6:0.249 7:0.257 8:0.258 9:0.313 10:0.324 11:0.339 12:0.349 13:0.358 14:0.364 15:0.377 16:0.394 17:0.402 18:0.524 19:0.55 20:0.581 21:0.628 22:0.664 23:0.697 24:0.725 25:0.738 26:0.743 27:0.857 28:0.868 29:0.891 30:0.906 31:0.928 32:0.949 33:0.975 34:0.992 35:1.0 36:1.0 37:0.003 38:0.003 39:0.003 40:0.003 41:0.003 42:0.004 43:0.004 44:0.004 45:0.004 46:0.004 47:0.004 48:0.004 49:0.004 50:0.004 51:0.004 52:0.004 53:0.004 54:0.004 55:0.005 56:0.005 57:0.005 58:0.005 59:0.006 60:0.007 61:0.011 62:0.012 63:0.013 64:0.028 65:0.041 66:0.057 67:0.119 68:0.141 69:0.232 70:0.341 71:0.5 72:0.678 73:1.0 74:0.338 75:0.38 76:0.425 77:0.47 78:0.515 79:0.557 80:0.604 81:0.642 82:0.672 83:0.71 84:0.732 85:0.758 86:0.774 87:0.79 88:0.807 89:0.842 90:0.864 91:0.874 92:0.879 93:0.885 94:0.923 95:0.925 96:0.928 97:0.947 98:0.952 99:0.96 100:0.962 101:0.969 102:0.969 103:0.971 104:0.981 105:0.982 106:0.984 107:0.992 108:0.994 109:1.0 110:1.0 
-8.42435458375141 0:0.141 1:0.161 2:0.186 3:0.212 4:0.239 5:0.253 6:0.264 7:0.273 8:0.275 9:0.34 10:0.345 11:0.352 12:0.358 13:0.377 14:0.387 15:0.408 16:0.425 17:0.429 18:0.62 19:0.642 20:0.676 21:0.708 22:0.751 23:0.783 24:0.807 25:0.819 26:0.822 27:0.929 28:0.936 29:0.944 30:0.951 31:0.967 32:0.974 33:0.987 34:0.996 35:1.0 36:1.0 37:0.016 38:0.016 39:0.016 40:0.016 41:0.016 42:0.016 43:0.016 44:0.016 45:0.016 46:0.016 47:0.017 48:0.017 49:0.017 50:0.017 51:0.017 52:0.017 53:0.017 54:0.017 55:0.018 56:0.018 57:0.018 58:0.019 59:0.019 60:0.019 61:0.023 62:0.024 63:0.025 64:0.043 65:0.057 66:0.078 67:0.165 68:0.189 69:0.278 70:0.362 71:0.464 72:0.58 73:1.0 74:0.446 75:0.475 76:0.506 77:0.532 78:0.561 79:0.592 80:0.62 81:0.647 82:0.67 83:0.696 84:0.714 85:0.737 86:0.748 87:0.766 88:0.777 89:0.814 90:0.833 91:0.84 92:0.846 93:0.852 94:0.908 95:0.911 96:0.915 97:0.942 98:0.947 99:0.954 100:0.958 101:0.963 102:0.965 103:0.966 104:0.98 105:0.981 106:0.984 107:0.991 108:0.993 109:1.0 110:1.0 
